{"learner":{"attributes":{"scikit_learn":"{\"_estimator_type\": \"regressor\"}"},"feature_names":[],"feature_types":[],"gradient_booster":{"model":{"gbtree_model_param":{"num_parallel_tree":"1","num_trees":"100"},"iteration_indptr":[0,1,2,3,4,5,6,7,8,9,10,11,12,13,14,15,16,17,18,19,20,21,22,23,24,25,26,27,28,29,30,31,32,33,34,35,36,37,38,39,40,41,42,43,44,45,46,47,48,49,50,51,52,53,54,55,56,57,58,59,60,61,62,63,64,65,66,67,68,69,70,71,72,73,74,75,76,77,78,79,80,81,82,83,84,85,86,87,88,89,90,91,92,93,94,95,96,97,98,99,100],"tree_info":[0,0,0,0,0,0,0,0,0,0,0,0,0,0,0,0,0,0,0,0,0,0,0,0,0,0,0,0,0,0,0,0,0,0,0,0,0,0,0,0,0,0,0,0,0,0,0,0,0,0,0,0,0,0,0,0,0,0,0,0,0,0,0,0,0,0,0,0,0,0,0,0,0,0,0,0,0,0,0,0,0,0,0,0,0,0,0,0,0,0,0,0,0,0,0,0,0,0,0,0],"trees":[{"base_weights":[-1.3347324E-4,5.927317E-2,-3.1265296E-2,1.1269339E-1,4.003385E-2,-7.268195E-3,-6.7919776E-2,1.531973E-1,8.071888E-2,8.344088E-2,2.1341061E-2,3.8529404E-2,-1.3918191E-2,-5.2033126E-2,-8.6255014E-2,5.241513E-2,1.6307218E-1,1.9065142E-1,7.1405716E-2,1.0176211E-1,5.843338E-2,3.1650353E-2,-2.3598604E-2,1.1484249E-1,2.8169263E-2,-3.6597787E-3,-3.1472266E-2,3.1715646E-2,-5.303464E-2,-7.73506E-2,-9.43106E-2,2.531536E-1,2.7629385E-2,2.0551346E-1,1.4344673E-1,1.4093235E-1,2.732117E-1,1.8159077E-2,7.953932E-2,4.2399295E-2,1.0649463E-1,8.43877E-2,4.1356504E-2,4.5735076E-2,2.2588668E-2,-1.0253277E-2,-5.374015E-2,7.956376E-2,1.8858126E-1,4.7304492E-2,3.6972237E-3,1.0464415E-2,-1.0869201E-2,-2.1660732E-2,-3.7424665E-2,5.5976246E-2,-5.2794594E-2,-4.37627E-2,-6.000761E-2,1.4063446E-2,-7.798594E-2,-8.171441E-2,-9.604819E-2,6.1886735E-2,2.7010188E-1,7.4052215E-2,1.70833E-2,1.7128533E-1,2.6209423E-1,1.6382697E-1,1.1596167E-1,-5.5222068E-2,1.4543915E-1,3.4740835E-1,2.4425204E-1,-2.3718799E-2,3.8394626E-2,1.0407805E-1,6.824103E-2,1.695797E-1,3.0359853E-2,1.22880965E-1,9.130703E-2,1.15022406E-1,7.320926E-2,5.11605E-2,-1.1857233E-3,6.2201127E-2,3.25825E-2,-6.623023E-3,2.6180973E-2,6.3207713E-3,-1.5685907E-2,-4.520169E-2,-7.564042E-2,-7.381238E-2,9.312994E-2,2.7600157E-1,1.1444103E-1,-3.634139E-2,5.1624034E-2,-6.270714E-2,9.310672E-3,2.242278E-2,2.2039886E-3,-2.891465E-3,-1.781855E-2,-1.3246634E-2,-3.1949807E-2,-3.346116E-2,-5.0671473E-2,1.7291489E-1,3.5194706E-2,-5.7809483E-2,3.8543154E-2,-3.755599E-2,-5.5993594E-2,-5.6799814E-2,-6.8719834E-2,7.042567E-2,-1.6860383E-2,-6.841806E-2,-7.994526E-2,-1.787594E-2,-8.2850926E-2,-5.8159187E-2,-9.663745E-2,-1.2086212E-3,2.2343274E-3,7.308003E-3,5.0474675E-3,1.062533E-3,2.5068463E-3,-9.995838E-5,9.790658E-4,5.7369634E-3,3.8531288E-3,6.993409E-3,5.341625E-3,3.6299531E-3,4.6018893E-3,3.3117854E-3,2.4431355E-3,-2.0307317E-4,-1.6895813E-3,4.055134E-3,2.8178021E-3,1.5606307E-3,8.450616E-3,5.2376473E-3,7.45973E-3,-7.1134337E-4,-1.281799E-4,1.76495E-3,8.1153546E-4,2.1447386E-3,3.2075974E-3,2.2157792E-3,1.4135265E-3,3.0474933E-3,5.659805E-3,1.8844372E-3,3.8306025E-4,3.336714E-3,2.5735763E-3,2.4882872E-3,1.8501377E-3,2.4830573E-3,3.7100653E-3,1.9016962E-3,1.2365545E-3,4.7620526E-3,1.1672316E-3,3.2992987E-4,-8.431806E-4,2.579007E-4,1.6199198E-3,9.6041796E-4,4.9103424E-4,8.0270215E-4,-3.2031012E-4,8.8463415E-4,3.6948037E-4,1.8589909E-3,6.3445514E-5,-1.8284627E-4,-6.042604E-4,-6.445245E-4,-1.312951E-3,-1.0342103E-3,-1.985084E-3,-1.1009745E-3,-1.957898E-3,3.0168917E-3,1.348746E-3,7.5373193E-3,4.3514892E-3,3.5251044E-3,4.9104984E-4,-1.0758418E-3,-3.0240358E-4,1.8871811E-3,9.69685E-4,-1.637619E-3,-7.4997847E-4,5.1527855E-4,-2.0018505E-4,-4.5951875E-4,6.200771E-4,-4.7216064E-4,1.2412465E-4,2.6425896E-5,-3.7036647E-4,-3.0446885E-4,-5.2622816E-4,-1.7083959E-4,-4.646664E-4,-7.005638E-4,-1.1459262E-3,4.7519838E-4,-8.0802053E-4,2.0943151E-3,-1.2202678E-3,6.580683E-3,3.191315E-3,9.4674854E-4,-1.5601991E-3,5.233278E-4,-1.5202092E-3,-1.3754645E-3,3.1745476E-3,-9.271243E-4,-1.7436726E-4,-9.973008E-4,-1.3928601E-3,-5.793172E-4,-1.3748128E-3,-1.2596714E-3,-1.6747906E-3,1.9776046E-3,-1.4663154E-3,1.2426228E-3,-9.4057637E-4,-1.6658494E-3,-1.0456227E-3,-1.7402325E-3,-1.9759322E-3,-8.174073E-4,8.798235E-4,-2.0264338E-3,-1.65715E-3,-5.086089E-4,-1.7480084E-3,-2.128013E-3,-2.3283898E-3],"categories":[],"categories_nodes":[],"categories_segments":[],"categories_sizes":[],"default_left":[0,0,0,0,0,0,0,0,0,0,0,0,0,0,0,0,0,0,0,0,0,0,0,0,0,0,0,0,0,0,0,0,0,0,0,0,0,0,0,0,0,0,0,0,0,0,0,0,0,0,0,0,0,0,0,0,0,0,0,0,0,0,0,0,0,0,0,0,0,0,0,0,0,0,0,0,0,0,0,0,0,0,0,0,0,0,0,0,0,0,0,0,0,0,0,0,0,0,0,0,0,0,0,0,0,0,0,0,0,0,0,0,0,0,0,0,0,0,0,0,0,0,0,0,0,0,0,0,0,0,0,0,0,0,0,0,0,0,0,0,0,0,0,0,0,0,0,0,0,0,0,0,0,0,0,0,0,0,0,0,0,0,0,0,0,0,0,0,0,0,0,0,0,0,0,0,0,0,0,0,0,0,0,0,0,0,0,0,0,0,0,0,0,0,0,0,0,0,0,0,0,0,0,0,0,0,0,0,0,0,0,0,0,0,0,0,0,0,0,0,0,0,0,0,0,0,0,0,0,0,0,0,0,0,0,0,0,0,0,0,0,0,0,0,0,0,0,0,0,0,0,0,0,0,0],"id":0,"left_children":[1,3,5,7,9,11,13,15,17,19,21,23,25,27,29,31,33,35,37,39,41,43,45,47,49,51,53,55,57,59,61,63,65,67,69,71,73,75,77,79,81,83,85,87,89,91,93,95,97,99,101,103,105,107,109,111,113,115,117,119,121,123,125,127,129,131,133,135,137,139,141,143,145,147,149,151,153,155,157,159,161,163,165,167,169,171,173,175,177,179,181,183,185,187,189,191,193,195,197,199,201,203,205,207,209,211,213,215,217,219,221,223,225,227,229,231,233,235,237,239,241,243,245,247,249,251,253,-1,-1,-1,-1,-1,-1,-1,-1,-1,-1,-1,-1,-1,-1,-1,-1,-1,-1,-1,-1,-1,-1,-1,-1,-1,-1,-1,-1,-1,-1,-1,-1,-1,-1,-1,-1,-1,-1,-1,-1,-1,-1,-1,-1,-1,-1,-1,-1,-1,-1,-1,-1,-1,-1,-1,-1,-1,-1,-1,-1,-1,-1,-1,-1,-1,-1,-1,-1,-1,-1,-1,-1,-1,-1,-1,-1,-1,-1,-1,-1,-1,-1,-1,-1,-1,-1,-1,-1,-1,-1,-1,-1,-1,-1,-1,-1,-1,-1,-1,-1,-1,-1,-1,-1,-1,-1,-1,-1,-1,-1,-1,-1,-1,-1,-1,-1,-1,-1,-1,-1,-1,-1,-1,-1,-1,-1,-1,-1],"loss_changes":[1.7667775E3,3.3757544E2,5.5134607E2,1.12579346E2,1.9594562E2,1.1537115E2,7.221228E1,3.8133423E1,4.9703003E1,3.3272217E1,7.8216324E1,3.7949646E1,5.956462E1,1.1153107E1,8.21814E0,1.7011215E1,2.8976685E1,1.5414764E1,1.9397522E1,1.1756409E1,1.3604713E1,1.7516388E1,1.2663073E1,1.4856743E1,1.9800117E1,2.126101E1,7.116997E0,3.2303514E0,8.471497E0,3.1869202E0,1.2805176E0,1.1344414E0,1.483062E0,2.1198303E1,1.3303162E1,2.133175E0,2.7376099E0,5.0422134E0,1.074025E1,4.716872E0,9.612457E0,4.132126E0,7.7438564E0,1.1625549E1,8.77224E0,1.9677453E0,1.7844486E0,8.112797E0,1.1881035E1,8.582287E0,6.9166007E0,6.966857E0,7.6617184E0,3.9836788E0,3.9727554E0,2.9325347E0,1.6952044E-1,4.2644196E0,2.069641E0,6.696925E-1,9.867554E-1,5.1867676E-1,1.1521301E0,1.4576657E-1,4.9100685E-1,4.8954535E-1,1.2853203E0,4.2698364E0,4.7333374E0,4.412628E0,3.0694122E0,3.0808479E-2,1.4812508E0,7.8147125E-1,1.4550476E0,2.1631908E-1,5.9283495E-1,5.1755066E0,5.803543E0,6.2710285E-1,1.9654543E0,4.702118E0,3.5926514E0,1.334095E0,1.2625923E0,4.5633926E0,1.7994415E0,7.2832565E0,2.7800694E0,2.5325418E0,8.729771E0,1.4058077E0,1.2765889E0,1.2511625E0,6.60038E-1,4.993415E-2,4.35446E0,3.012291E0,3.1783085E0,2.3805082E-1,6.76511E0,2.6207018E-1,3.7571325E0,4.412752E0,2.7788801E0,3.27165E0,1.59445E0,9.654069E-1,8.2211685E-1,1.671524E0,1.6288948E0,5.80636E-1,4.929974E-1,1.7298877E-1,2.0557514E-1,1.6339531E0,6.763077E-1,1.8374634E0,5.277786E-1,2.474004E-1,3.913385E-1,3.5635757E-1,9.319763E-1,1.251029E-1,1.9423676E-1,4.509864E-1,4.4540405E-1,0E0,0E0,0E0,0E0,0E0,0E0,0E0,0E0,0E0,0E0,0E0,0E0,0E0,0E0,0E0,0E0,0E0,0E0,0E0,0E0,0E0,0E0,0E0,0E0,0E0,0E0,0E0,0E0,0E0,0E0,0E0,0E0,0E0,0E0,0E0,0E0,0E0,0E0,0E0,0E0,0E0,0E0,0E0,0E0,0E0,0E0,0E0,0E0,0E0,0E0,0E0,0E0,0E0,0E0,0E0,0E0,0E0,0E0,0E0,0E0,0E0,0E0,0E0,0E0,0E0,0E0,0E0,0E0,0E0,0E0,0E0,0E0,0E0,0E0,0E0,0E0,0E0,0E0,0E0,0E0,0E0,0E0,0E0,0E0,0E0,0E0,0E0,0E0,0E0,0E0,0E0,0E0,0E0,0E0,0E0,0E0,0E0,0E0,0E0,0E0,0E0,0E0,0E0,0E0,0E0,0E0,0E0,0E0,0E0,0E0,0E0,0E0,0E0,0E0,0E0,0E0,0E0,0E0,0E0,0E0,0E0,0E0,0E0,0E0,0E0,0E0,0E0,0E0],"parents":[2147483647,0,0,1,1,2,2,3,3,4,4,5,5,6,6,7,7,8,8,9,9,10,10,11,11,12,12,13,13,14,14,15,15,16,16,17,17,18,18,19,19,20,20,21,21,22,22,23,23,24,24,25,25,26,26,27,27,28,28,29,29,30,30,31,31,32,32,33,33,34,34,35,35,36,36,37,37,38,38,39,39,40,40,41,41,42,42,43,43,44,44,45,45,46,46,47,47,48,48,49,49,50,50,51,51,52,52,53,53,54,54,55,55,56,56,57,57,58,58,59,59,60,60,61,61,62,62,63,63,64,64,65,65,66,66,67,67,68,68,69,69,70,70,71,71,72,72,73,73,74,74,75,75,76,76,77,77,78,78,79,79,80,80,81,81,82,82,83,83,84,84,85,85,86,86,87,87,88,88,89,89,90,90,91,91,92,92,93,93,94,94,95,95,96,96,97,97,98,98,99,99,100,100,101,101,102,102,103,103,104,104,105,105,106,106,107,107,108,108,109,109,110,110,111,111,112,112,113,113,114,114,115,115,116,116,117,117,118,118,119,119,120,120,121,121,122,122,123,123,124,124,125,125,126,126],"right_children":[2,4,6,8,10,12,14,16,18,20,22,24,26,28,30,32,34,36,38,40,42,44,46,48,50,52,54,56,58,60,62,64,66,68,70,72,74,76,78,80,82,84,86,88,90,92,94,96,98,100,102,104,106,108,110,112,114,116,118,120,122,124,126,128,130,132,134,136,138,140,142,144,146,148,150,152,154,156,158,160,162,164,166,168,170,172,174,176,178,180,182,184,186,188,190,192,194,196,198,200,202,204,206,208,210,212,214,216,218,220,222,224,226,228,230,232,234,236,238,240,242,244,246,248,250,252,254,-1,-1,-1,-1,-1,-1,-1,-1,-1,-1,-1,-1,-1,-1,-1,-1,-1,-1,-1,-1,-1,-1,-1,-1,-1,-1,-1,-1,-1,-1,-1,-1,-1,-1,-1,-1,-1,-1,-1,-1,-1,-1,-1,-1,-1,-1,-1,-1,-1,-1,-1,-1,-1,-1,-1,-1,-1,-1,-1,-1,-1,-1,-1,-1,-1,-1,-1,-1,-1,-1,-1,-1,-1,-1,-1,-1,-1,-1,-1,-1,-1,-1,-1,-1,-1,-1,-1,-1,-1,-1,-1,-1,-1,-1,-1,-1,-1,-1,-1,-1,-1,-1,-1,-1,-1,-1,-1,-1,-1,-1,-1,-1,-1,-1,-1,-1,-1,-1,-1,-1,-1,-1,-1,-1,-1,-1,-1,-1],"split_conditions":[-4.576754E-1,-7.701046E-1,3.5757512E-1,-1.0148673E0,-1.1675104E0,-1.2303672E0,1.075858E0,-1.1620337E0,-1.9165432E0,2.4872534E-1,1.586519E-1,-2.0015776E0,3.4318104E-1,-1.5120807E0,1.6566023E0,-2.0167854E0,-1.4035563E0,-2.0731103E-1,-9.9682873E-1,-1.1445829E0,-1.5221287E0,-8.5020304E-1,8.391925E-1,-1.2493257E-2,2.6699984E-1,-4.3299708E-1,-4.3299708E-1,1.6116883E0,6.05009E-1,-1.4831029E0,1.2005548E0,-1.8465024E0,-1.672164E0,-3.005934E-1,-1.277514E0,-1.3291819E0,-2.2910419E0,-1.2446989E0,-1.3333498E0,-2.0167854E0,-1.4629064E0,-1.9147826E0,1.4877014E-1,-4.5930862E-2,-1.055963E0,-8.861372E-1,1.6062282E0,-1.2446989E0,1.0261635E-1,-1.2213238E0,-1.1803534E0,-1.6234547E-1,-1.2531099E-1,8.28485E-1,1.0691906E0,-2.0015776E0,9.985359E-1,8.620224E-1,1.1805686E0,5.5586714E-1,4.963332E-1,-5.5269223E-1,-1.1582617E0,-1.4658058E0,-2.1762247E0,-1.249819E0,-1.2695962E0,-1.8372077E0,-1.650049E0,-1.05482645E-1,-1.1248302E0,-8.1577367E-1,-2.1130996E0,-1.9198228E-1,6.6960204E-1,-1.2973295E0,-1.650049E0,-3.0222317E-2,-8.5020304E-1,-1.2213238E0,-1.4096136E0,-3.18004E-1,-2.613652E-1,1.3577731E0,-1.7411374E-1,-1.4096136E0,1.104775E0,-1.0828663E0,6.5410274E-1,-1.4096136E0,2.0500155E-2,-5.1252866E-1,4.332617E-1,-7.820691E-1,3.0016927E-2,1.0261635E-1,1.8329579E-1,-2.1130996E0,8.96282E-1,-1.2973295E0,-1.650049E0,-1.2446989E0,8.28485E-1,-1.0975342E0,-9.856062E-1,-3.4658513E-3,1.6726065E-1,5.5586714E-1,1.7978367E0,-1.4658058E0,-1.5460373E0,-2.2910419E0,2.050867E0,-9.75263E-2,-1.7388906E0,1.0440042E0,-6.687545E-1,-1.0016177E0,-7.701046E-1,1.6062282E0,1.1570212E0,3.3695464E0,3.9944497E-1,-6.366301E-1,3.3695464E0,4.8250863E-1,2.6699984E-1,-1.2086212E-3,2.2343274E-3,7.308003E-3,5.0474675E-3,1.062533E-3,2.5068463E-3,-9.995838E-5,9.790658E-4,5.7369634E-3,3.8531288E-3,6.993409E-3,5.341625E-3,3.6299531E-3,4.6018893E-3,3.3117854E-3,2.4431355E-3,-2.0307317E-4,-1.6895813E-3,4.055134E-3,2.8178021E-3,1.5606307E-3,8.450616E-3,5.2376473E-3,7.45973E-3,-7.1134337E-4,-1.281799E-4,1.76495E-3,8.1153546E-4,2.1447386E-3,3.2075974E-3,2.2157792E-3,1.4135265E-3,3.0474933E-3,5.659805E-3,1.8844372E-3,3.8306025E-4,3.336714E-3,2.5735763E-3,2.4882872E-3,1.8501377E-3,2.4830573E-3,3.7100653E-3,1.9016962E-3,1.2365545E-3,4.7620526E-3,1.1672316E-3,3.2992987E-4,-8.431806E-4,2.579007E-4,1.6199198E-3,9.6041796E-4,4.9103424E-4,8.0270215E-4,-3.2031012E-4,8.8463415E-4,3.6948037E-4,1.8589909E-3,6.3445514E-5,-1.8284627E-4,-6.042604E-4,-6.445245E-4,-1.312951E-3,-1.0342103E-3,-1.985084E-3,-1.1009745E-3,-1.957898E-3,3.0168917E-3,1.348746E-3,7.5373193E-3,4.3514892E-3,3.5251044E-3,4.9104984E-4,-1.0758418E-3,-3.0240358E-4,1.8871811E-3,9.69685E-4,-1.637619E-3,-7.4997847E-4,5.1527855E-4,-2.0018505E-4,-4.5951875E-4,6.200771E-4,-4.7216064E-4,1.2412465E-4,2.6425896E-5,-3.7036647E-4,-3.0446885E-4,-5.2622816E-4,-1.7083959E-4,-4.646664E-4,-7.005638E-4,-1.1459262E-3,4.7519838E-4,-8.0802053E-4,2.0943151E-3,-1.2202678E-3,6.580683E-3,3.191315E-3,9.4674854E-4,-1.5601991E-3,5.233278E-4,-1.5202092E-3,-1.3754645E-3,3.1745476E-3,-9.271243E-4,-1.7436726E-4,-9.973008E-4,-1.3928601E-3,-5.793172E-4,-1.3748128E-3,-1.2596714E-3,-1.6747906E-3,1.9776046E-3,-1.4663154E-3,1.2426228E-3,-9.4057637E-4,-1.6658494E-3,-1.0456227E-3,-1.7402325E-3,-1.9759322E-3,-8.174073E-4,8.798235E-4,-2.0264338E-3,-1.65715E-3,-5.086089E-4,-1.7480084E-3,-2.128013E-3,-2.3283898E-3],"split_indices":[1,0,3,1,1,0,3,2,0,0,3,0,1,0,3,1,0,2,2,2,1,1,3,2,1,0,0,1,3,0,2,0,1,2,1,2,0,2,0,1,1,1,3,0,2,1,3,2,1,2,2,1,1,1,1,0,3,1,1,1,2,0,0,2,1,0,2,1,0,2,0,1,0,2,2,2,0,2,1,2,2,0,0,0,3,2,2,2,0,2,0,0,3,1,0,1,1,0,1,2,0,2,1,2,2,3,0,1,1,2,2,0,2,2,0,2,0,0,0,3,3,1,1,0,1,1,1,0,0,0,0,0,0,0,0,0,0,0,0,0,0,0,0,0,0,0,0,0,0,0,0,0,0,0,0,0,0,0,0,0,0,0,0,0,0,0,0,0,0,0,0,0,0,0,0,0,0,0,0,0,0,0,0,0,0,0,0,0,0,0,0,0,0,0,0,0,0,0,0,0,0,0,0,0,0,0,0,0,0,0,0,0,0,0,0,0,0,0,0,0,0,0,0,0,0,0,0,0,0,0,0,0,0,0,0,0,0,0,0,0,0,0,0,0,0,0,0,0,0,0,0,0,0,0,0],"split_type":[0,0,0,0,0,0,0,0,0,0,0,0,0,0,0,0,0,0,0,0,0,0,0,0,0,0,0,0,0,0,0,0,0,0,0,0,0,0,0,0,0,0,0,0,0,0,0,0,0,0,0,0,0,0,0,0,0,0,0,0,0,0,0,0,0,0,0,0,0,0,0,0,0,0,0,0,0,0,0,0,0,0,0,0,0,0,0,0,0,0,0,0,0,0,0,0,0,0,0,0,0,0,0,0,0,0,0,0,0,0,0,0,0,0,0,0,0,0,0,0,0,0,0,0,0,0,0,0,0,0,0,0,0,0,0,0,0,0,0,0,0,0,0,0,0,0,0,0,0,0,0,0,0,0,0,0,0,0,0,0,0,0,0,0,0,0,0,0,0,0,0,0,0,0,0,0,0,0,0,0,0,0,0,0,0,0,0,0,0,0,0,0,0,0,0,0,0,0,0,0,0,0,0,0,0,0,0,0,0,0,0,0,0,0,0,0,0,0,0,0,0,0,0,0,0,0,0,0,0,0,0,0,0,0,0,0,0,0,0,0,0,0,0,0,0,0,0,0,0,0,0,0,0,0,0],"sum_hessian":[9.55301E5,3.2848E5,6.26821E5,8.6972E4,2.41508E5,3.7882E5,2.48001E5,3.8362E4,4.861E4,7.2692E4,1.68816E5,4.8028E4,3.30792E5,1.32882E5,1.15119E5,3.426E3,3.4936E4,3.791E3,4.4819E4,4.1947E4,3.0745E4,1.37318E5,3.1498E4,5.736E3,4.2292E4,2.08788E5,1.22004E5,1.568E3,1.31314E5,5.47E4,6.0419E4,3.73E2,3.053E3,1.1036E4,2.39E4,2.372E3,1.419E3,5.942E3,3.8877E4,3.101E3,3.8846E4,1.2194E4,1.8551E4,5.375E4,8.3568E4,2.1837E4,9.661E3,3.885E3,1.851E3,2.373E4,1.8562E4,7.0552E4,1.38236E5,4.608E4,7.5924E4,1.22E3,3.48E2,5.6381E4,7.4933E4,3.76E2,5.4324E4,7.349E3,5.307E4,3.2E1,3.41E2,5.6E2,2.493E3,6.885E3,4.151E3,1.3713E4,1.0187E4,5.2E1,2.32E3,3.88E2,1.031E3,1.934E3,4.008E3,1.2246E4,2.6631E4,2.64E2,2.837E3,1.8672E4,2.0174E4,3.25E3,8.944E3,1.5078E4,3.473E3,2.386E4,2.989E4,9.148E3,7.442E4,5.386E3,1.6451E4,6.961E3,2.7E3,3.14E2,3.571E3,8.45E2,1.006E3,1.163E3,2.2567E4,1.443E3,1.7119E4,2.8817E4,4.1735E4,6.4365E4,7.3871E4,2.5359E4,2.0721E4,5.8453E4,1.7471E4,1.8E2,1.04E3,3.32E2,1.6E1,3.7415E4,1.8966E4,5.4793E4,2.014E4,1.33E2,2.43E2,9.261E3,4.5063E4,1.31E2,7.218E3,8.2E2,5.225E4,6E0,2.6E1,1.98E2,1.43E2,2.95E2,2.65E2,1.323E3,1.17E3,7.87E2,6.098E3,2.219E3,1.932E3,1.0004E4,3.709E3,3.659E3,6.528E3,1.6E1,3.6E1,1.188E3,1.132E3,1.2E1,3.76E2,7.78E2,2.53E2,1.439E3,4.95E2,4.17E2,3.591E3,8.465E3,3.781E3,6.91E3,1.9721E4,1.71E2,9.3E1,6.35E2,2.202E3,8.479E3,1.0193E4,1.0106E4,1.0068E4,2.596E3,6.54E2,6.761E3,2.183E3,2E2,1.4878E4,2.412E3,1.061E3,2.481E3,2.1379E4,1.8038E4,1.1852E4,1.323E3,7.825E3,3.6513E4,3.7907E4,2.56E2,5.13E3,9.043E3,7.408E3,2.492E3,4.469E3,5.38E2,2.162E3,8.2E1,2.32E2,1.846E3,1.725E3,5.8E2,2.65E2,7.37E2,2.69E2,8.39E2,3.24E2,6.322E3,1.6245E4,1.198E3,2.45E2,1.0088E4,7.031E3,2.322E3,2.6495E4,5.015E3,3.672E4,4.8926E4,1.5439E4,3.4228E4,3.9643E4,1.2941E4,1.2418E4,1.7996E4,2.725E3,5.75E2,5.7878E4,8.1E1,1.739E4,4.3E1,1.37E2,9.97E2,4.3E1,2.2E1,3.1E2,8E0,8E0,3.5698E4,1.717E3,2.985E3,1.5981E4,1.71E3,5.3083E4,2.024E3,1.8116E4,1.23E2,1E1,5.8E1,1.85E2,8.66E3,6.01E2,1.4512E4,3.0551E4,1.03E2,2.8E1,6.08E3,1.138E3,2.46E2,5.74E2,8.241E3,4.4009E4],"tree_param":{"num_deleted":"0","num_feature":"5","num_nodes":"255","size_leaf_vector":"1"}},{"base_weights":[1.3920234E-4,5.831542E-2,-3.0379985E-2,1.1060734E-1,3.8677126E-2,-7.0050173E-3,-6.688642E-2,1.5766466E-1,8.532581E-2,8.084929E-2,2.1516498E-2,3.7895296E-2,-1.3775545E-2,-5.129476E-2,-8.539961E-2,8.048818E-2,1.6921188E-1,1.9355178E-1,7.636626E-2,9.761881E-2,5.8607254E-2,3.1815052E-2,-2.3301873E-2,1.329962E-1,3.0048564E-2,-2.4293994E-3,-3.0513164E-2,1.7843723E-2,-5.2598592E-2,-7.888053E-2,-9.465265E-2,2.6205856E-1,5.846003E-2,1.974175E-1,1.4173667E-1,1.4475775E-1,2.6836315E-1,-8.622304E-3,8.1905454E-2,3.646222E-2,1.0242061E-1,9.268466E-2,4.651967E-2,4.302482E-2,1.9690372E-2,-9.61987E-3,-5.112276E-2,8.884152E-2,2.179969E-1,4.7061518E-2,1.5197607E-3,1.0535373E-2,-8.962308E-3,-2.4508614E-2,-4.0749174E-2,1.1081011E-1,1.3253919E-3,-4.4133354E-2,-5.956935E-2,-1.5491161E-2,-7.950834E-2,1.2544903E-2,-9.4841614E-2,6.6515006E-2,2.771287E-1,1.811759E-2,9.722085E-2,1.6242178E-1,2.3362137E-1,1.5493749E-1,1.2238867E-1,-4.0371645E-2,1.5004389E-1,3.7321794E-1,2.2900034E-1,-2.2551559E-2,1.5526577E-2,1.0099908E-1,6.82145E-2,1.7077518E-1,2.894535E-2,1.19871065E-1,8.7430924E-2,1.1848959E-1,8.2546756E-2,5.5264927E-2,5.4372526E-3,1.400421E-4,4.7932547E-2,3.253533E-2,1.1461007E-2,9.821337E-4,-1.7071491E-2,-4.1879717E-2,-7.072009E-2,-6.649604E-2,1.02022916E-1,2.97879E-1,1.1881846E-1,-3.403029E-2,5.116485E-2,-6.0702946E-2,6.817965E-3,-2.2004118E-2,1.3177848E-2,-5.326581E-4,-1.51977185E-2,-1.0679475E-2,-2.8234484E-2,-3.0841896E-2,-4.588638E-2,1.65526E-1,-2.5593227E-2,8.276912E-2,-7.458234E-3,-3.538359E-2,-5.10021E-2,-5.6424625E-2,-6.663227E-2,9.047459E-2,-3.020211E-2,-8.007558E-2,-4.0239006E-2,1.9191198E-1,-2.1525392E-2,-8.049779E-2,-9.580094E-2,-8.2117657E-4,4.5480593E-3,7.559436E-3,5.2655404E-3,8.848653E-4,-2.7135626E-4,2.9716718E-3,1.3770894E-3,4.9964003E-3,3.5563824E-3,6.4745694E-3,4.8798374E-3,3.468364E-3,4.165896E-3,2.1457076E-3,3.0482754E-3,-2.4077862E-4,-1.5134327E-3,4.7148657E-3,3.147697E-3,8.445621E-3,1.171777E-2,4.854727E-3,7.344182E-3,-2.6372436E-4,-7.1817177E-4,1.3668244E-3,-0E0,3.3728124E-3,2.218902E-3,2.0827109E-3,1.3136766E-3,5.2007395E-3,1.915931E-3,1.67773E-3,3.3121108E-4,3.2638598E-3,2.617269E-3,2.38355E-3,1.8136576E-3,2.3160812E-3,3.3331048E-3,2.7156724E-3,1.8339478E-3,4.3504713E-3,1.280313E-3,3.141472E-4,-1.0681353E-3,3.6835182E-4,-2.8356246E-4,1.5176687E-3,8.883445E-4,3.5827137E-3,7.4599363E-4,4.1809343E-4,1.0388159E-4,6.439191E-4,-1.11143774E-4,-1.5129805E-4,-6.0051127E-4,-5.958324E-4,-1.2278475E-3,-9.0453104E-4,-1.8829724E-3,-1.7942751E-3,-0E0,3.236468E-3,1.5543762E-3,6.5957517E-3,1.0019867E-2,3.4764614E-3,-0E0,-1.0075134E-3,-2.879752E-4,1.8582382E-3,9.4457646E-4,-1.0527514E-3,-1.8040983E-3,4.2127227E-4,-3.1983256E-4,2.6560551E-4,-6.795364E-4,5.7291146E-4,1.16088435E-4,9.804012E-5,-3.6502228E-4,-2.2081456E-4,-4.646892E-4,-1.912593E-4,-6.2869955E-4,7.469499E-4,-6.8456086E-4,-6.585935E-4,-1.1434857E-3,1.5364704E-3,-1.1028497E-3,7.934713E-3,2.9957122E-3,-1.2353557E-3,2.393174E-3,3.3214167E-3,7.992276E-4,1.9435889E-4,-8.615789E-4,-4.1068075E-4,-9.0074004E-4,-1.1184508E-3,-1.3856991E-3,-1.231065E-3,-1.5060573E-3,-1.1611683E-3,-1.6240827E-3,4.181146E-3,9.902766E-4,-8.9177035E-4,2.5501028E-3,-1.7687904E-3,-1.998179E-3,-6.706253E-4,-1.8217562E-3,-0E0,5.8482727E-3,-7.957908E-4,4.273906E-3,1.2805498E-4,-1.9513674E-3,-2.1468436E-3,-2.2997954E-3],"categories":[],"categories_nodes":[],"categories_segments":[],"categories_sizes":[],"default_left":[0,0,0,0,0,0,0,0,0,0,0,0,0,0,0,0,0,0,0,0,0,0,0,0,0,0,0,0,0,0,0,0,0,0,0,0,0,0,0,0,0,0,0,0,0,0,0,0,0,0,0,0,0,0,0,0,0,0,0,0,0,0,0,0,0,0,0,0,0,0,0,0,0,0,0,0,0,0,0,0,0,0,0,0,0,0,0,0,0,0,0,0,0,0,0,0,0,0,0,0,0,0,0,0,0,0,0,0,0,0,0,0,0,0,0,0,0,0,0,0,0,0,0,0,0,0,0,0,0,0,0,0,0,0,0,0,0,0,0,0,0,0,0,0,0,0,0,0,0,0,0,0,0,0,0,0,0,0,0,0,0,0,0,0,0,0,0,0,0,0,0,0,0,0,0,0,0,0,0,0,0,0,0,0,0,0,0,0,0,0,0,0,0,0,0,0,0,0,0,0,0,0,0,0,0,0,0,0,0,0,0,0,0,0,0,0,0,0,0,0,0,0,0,0,0,0,0,0,0,0,0,0,0,0,0,0,0,0,0,0,0,0,0,0,0,0,0,0,0,0,0,0,0,0,0],"id":1,"left_children":[1,3,5,7,9,11,13,15,17,19,21,23,25,27,29,31,33,35,37,39,41,43,45,47,49,51,53,55,57,59,61,63,65,67,69,71,73,75,77,79,81,83,85,87,89,91,93,95,97,99,101,103,105,107,109,111,113,115,117,119,121,123,125,127,129,131,133,135,137,139,141,143,145,147,149,151,153,155,157,159,161,163,165,167,169,171,173,175,177,179,181,183,185,187,189,191,193,195,197,199,201,203,205,207,209,211,213,215,217,219,221,223,225,227,229,231,233,235,237,239,241,243,245,247,249,251,253,-1,-1,-1,-1,-1,-1,-1,-1,-1,-1,-1,-1,-1,-1,-1,-1,-1,-1,-1,-1,-1,-1,-1,-1,-1,-1,-1,-1,-1,-1,-1,-1,-1,-1,-1,-1,-1,-1,-1,-1,-1,-1,-1,-1,-1,-1,-1,-1,-1,-1,-1,-1,-1,-1,-1,-1,-1,-1,-1,-1,-1,-1,-1,-1,-1,-1,-1,-1,-1,-1,-1,-1,-1,-1,-1,-1,-1,-1,-1,-1,-1,-1,-1,-1,-1,-1,-1,-1,-1,-1,-1,-1,-1,-1,-1,-1,-1,-1,-1,-1,-1,-1,-1,-1,-1,-1,-1,-1,-1,-1,-1,-1,-1,-1,-1,-1,-1,-1,-1,-1,-1,-1,-1,-1,-1,-1,-1,-1],"loss_changes":[1.6964896E3,3.3760388E2,5.347969E2,1.0672034E2,1.7296552E2,1.1615224E2,7.058911E1,2.788501E1,5.655359E1,2.5751068E1,7.842156E1,3.7330643E1,6.3050087E1,1.1978516E1,6.7056274E0,1.6275627E1,2.1020569E1,1.612799E1,2.5402344E1,1.154657E1,1.2217308E1,1.8768372E1,1.2075935E1,1.4224731E1,2.244418E1,1.6760868E1,8.234734E0,3.7643714E0,7.6735535E0,2.5986328E0,9.4784546E-1,1.2087421E0,5.692072E0,1.6886658E1,3.4467468E0,2.679699E0,6.931099E0,1.1125041E0,1.3199707E1,2.8673508E0,9.50354E0,1.984642E0,7.87941E0,1.5102188E1,7.0110474E0,1.6833292E0,1.8746357E0,5.175974E0,1.0157684E1,9.647385E0,5.6937823E0,5.700864E0,6.915106E0,4.351982E0,2.511467E0,2.7888513E0,1.5061171E0,3.5247192E0,1.5635223E0,1.0139292E0,1.4255981E0,5.3732693E-1,5.9332275E-1,4.906733E-1,6.592064E-1,1.0164852E0,1.9909573E0,4.0577087E0,7.031891E0,1.3940582E0,1.0012436E0,4.482223E-2,2.1284218E0,3.9756775E-1,2.3022003E0,1.7897236E-1,7.9046893E-1,6.5460663E0,7.3842926E0,5.700865E-1,1.6929357E0,2.8006287E0,2.7707062E0,9.337082E-1,9.101143E-1,3.1821556E0,1.5105428E0,1.3681672E0,1.0807358E1,3.489294E0,1.7561798E0,1.3001639E0,1.093286E0,1.1587276E0,9.0768623E-1,1.2179047E-1,2.8549423E0,1.3836479E0,1.910017E0,2.485913E-1,8.490456E0,3.1556606E-1,3.5237796E0,1.0903983E0,5.55375E0,3.8650935E0,1.9413319E0,7.414694E-1,2.2527542E0,9.0519524E-1,1.8566437E0,1.5869651E0,3.708508E-1,5.421426E-1,8.545382E-1,1.1710854E0,9.305954E-1,1.5683594E0,6.411133E-1,2.8521556E-1,5.8156985E-1,1.4118958E0,3.91654E-1,1.5121096E-1,1.768033E-1,4.0999794E-1,1.8075562E-1,0E0,0E0,0E0,0E0,0E0,0E0,0E0,0E0,0E0,0E0,0E0,0E0,0E0,0E0,0E0,0E0,0E0,0E0,0E0,0E0,0E0,0E0,0E0,0E0,0E0,0E0,0E0,0E0,0E0,0E0,0E0,0E0,0E0,0E0,0E0,0E0,0E0,0E0,0E0,0E0,0E0,0E0,0E0,0E0,0E0,0E0,0E0,0E0,0E0,0E0,0E0,0E0,0E0,0E0,0E0,0E0,0E0,0E0,0E0,0E0,0E0,0E0,0E0,0E0,0E0,0E0,0E0,0E0,0E0,0E0,0E0,0E0,0E0,0E0,0E0,0E0,0E0,0E0,0E0,0E0,0E0,0E0,0E0,0E0,0E0,0E0,0E0,0E0,0E0,0E0,0E0,0E0,0E0,0E0,0E0,0E0,0E0,0E0,0E0,0E0,0E0,0E0,0E0,0E0,0E0,0E0,0E0,0E0,0E0,0E0,0E0,0E0,0E0,0E0,0E0,0E0,0E0,0E0,0E0,0E0,0E0,0E0,0E0,0E0,0E0,0E0,0E0,0E0],"parents":[2147483647,0,0,1,1,2,2,3,3,4,4,5,5,6,6,7,7,8,8,9,9,10,10,11,11,12,12,13,13,14,14,15,15,16,16,17,17,18,18,19,19,20,20,21,21,22,22,23,23,24,24,25,25,26,26,27,27,28,28,29,29,30,30,31,31,32,32,33,33,34,34,35,35,36,36,37,37,38,38,39,39,40,40,41,41,42,42,43,43,44,44,45,45,46,46,47,47,48,48,49,49,50,50,51,51,52,52,53,53,54,54,55,55,56,56,57,57,58,58,59,59,60,60,61,61,62,62,63,63,64,64,65,65,66,66,67,67,68,68,69,69,70,70,71,71,72,72,73,73,74,74,75,75,76,76,77,77,78,78,79,79,80,80,81,81,82,82,83,83,84,84,85,85,86,86,87,87,88,88,89,89,90,90,91,91,92,92,93,93,94,94,95,95,96,96,97,97,98,98,99,99,100,100,101,101,102,102,103,103,104,104,105,105,106,106,107,107,108,108,109,109,110,110,111,111,112,112,113,113,114,114,115,115,116,116,117,117,118,118,119,119,120,120,121,121,122,122,123,123,124,124,125,125,126,126],"right_children":[2,4,6,8,10,12,14,16,18,20,22,24,26,28,30,32,34,36,38,40,42,44,46,48,50,52,54,56,58,60,62,64,66,68,70,72,74,76,78,80,82,84,86,88,90,92,94,96,98,100,102,104,106,108,110,112,114,116,118,120,122,124,126,128,130,132,134,136,138,140,142,144,146,148,150,152,154,156,158,160,162,164,166,168,170,172,174,176,178,180,182,184,186,188,190,192,194,196,198,200,202,204,206,208,210,212,214,216,218,220,222,224,226,228,230,232,234,236,238,240,242,244,246,248,250,252,254,-1,-1,-1,-1,-1,-1,-1,-1,-1,-1,-1,-1,-1,-1,-1,-1,-1,-1,-1,-1,-1,-1,-1,-1,-1,-1,-1,-1,-1,-1,-1,-1,-1,-1,-1,-1,-1,-1,-1,-1,-1,-1,-1,-1,-1,-1,-1,-1,-1,-1,-1,-1,-1,-1,-1,-1,-1,-1,-1,-1,-1,-1,-1,-1,-1,-1,-1,-1,-1,-1,-1,-1,-1,-1,-1,-1,-1,-1,-1,-1,-1,-1,-1,-1,-1,-1,-1,-1,-1,-1,-1,-1,-1,-1,-1,-1,-1,-1,-1,-1,-1,-1,-1,-1,-1,-1,-1,-1,-1,-1,-1,-1,-1,-1,-1,-1,-1,-1,-1,-1,-1,-1,-1,-1,-1,-1,-1,-1],"split_conditions":[-4.576754E-1,-7.467596E-1,3.7015393E-1,-1.1347166E0,-1.184831E0,-1.2118442E0,1.1034547E0,-1.0828663E0,-1.9165432E0,2.4872534E-1,1.586519E-1,-2.1130996E0,2.884817E-1,-1.3789794E0,1.887932E0,-2.0167854E0,-1.1757143E0,-2.3623565E-1,-1.1803534E0,-1.1445829E0,-1.672164E0,8.8435575E-2,7.985478E-1,-3.0222317E-2,3.7675172E-1,-4.3299708E-1,8.449588E-1,-1.9165432E0,6.375371E-1,-1.3789794E0,-1.6918156E0,-1.4658058E0,-1.2213238E0,-4.3083096E-1,-1.3624308E0,-1.3291819E0,-2.2910419E0,-1.2695962E0,-8.1577367E-1,-2.1762247E0,-1.4911854E0,-2.0167854E0,1.4877014E-1,-1.0688924E0,-8.618494E-1,-7.7099776E-1,1.4712973E0,-1.2446989E0,2.453931E-1,-1.2213238E0,-1.2000442E0,-1.11234E0,-1.7146702E-1,-6.9061565E-1,-5.325238E-1,1.6116883E0,-1.1603671E-1,4.3485102E-1,1.0904424E0,-1.9165432E0,3.3695464E0,-1.6234547E-1,1.1333551E0,-1.2901473E0,-2.1762247E0,-1.3864174E0,-1.724934E0,-1.7198106E0,-1.5435543E0,-1.5323007E-1,-1.3657768E0,-7.820691E-1,-2.2910419E0,-3.3484015E-1,6.6960204E-1,-8.269228E-1,-1.3553897E0,-1.5435543E0,-1.2303672E0,-1.9548088E-1,-1.3659035E0,-3.9437425E-1,-2.8965116E-1,7.9592496E-1,3.760687E-1,-1.4096136E0,1.2179277E0,-8.269228E-1,-8.5020304E-1,-1.4658058E0,6.273379E-1,-8.278064E-2,3.5757512E-1,-7.820691E-1,7.864029E-2,-1.2973295E0,1.5295225E-1,1.0440042E0,1.2300562E0,-1.2973295E0,-1.650049E0,9.693255E-1,1.0075171E0,-1.4658058E0,-1.6234547E-1,-3.4658513E-3,1.17775455E-1,8.031641E-2,-1.4658058E0,1.7467859E0,-1.5460373E0,-2.2910419E0,1.0440042E0,-1.5763099E0,1.280659E0,-5.023446E-1,1.2300562E0,8.820891E-1,-7.701046E-1,1.9343928E-1,2.9099088E0,1.3528621E0,5.632415E-1,-3.4589186E-1,3.3695464E0,-6.2596405E-1,2.9939687E-1,-8.2117657E-4,4.5480593E-3,7.559436E-3,5.2655404E-3,8.848653E-4,-2.7135626E-4,2.9716718E-3,1.3770894E-3,4.9964003E-3,3.5563824E-3,6.4745694E-3,4.8798374E-3,3.468364E-3,4.165896E-3,2.1457076E-3,3.0482754E-3,-2.4077862E-4,-1.5134327E-3,4.7148657E-3,3.147697E-3,8.445621E-3,1.171777E-2,4.854727E-3,7.344182E-3,-2.6372436E-4,-7.1817177E-4,1.3668244E-3,-0E0,3.3728124E-3,2.218902E-3,2.0827109E-3,1.3136766E-3,5.2007395E-3,1.915931E-3,1.67773E-3,3.3121108E-4,3.2638598E-3,2.617269E-3,2.38355E-3,1.8136576E-3,2.3160812E-3,3.3331048E-3,2.7156724E-3,1.8339478E-3,4.3504713E-3,1.280313E-3,3.141472E-4,-1.0681353E-3,3.6835182E-4,-2.8356246E-4,1.5176687E-3,8.883445E-4,3.5827137E-3,7.4599363E-4,4.1809343E-4,1.0388159E-4,6.439191E-4,-1.11143774E-4,-1.5129805E-4,-6.0051127E-4,-5.958324E-4,-1.2278475E-3,-9.0453104E-4,-1.8829724E-3,-1.7942751E-3,-0E0,3.236468E-3,1.5543762E-3,6.5957517E-3,1.0019867E-2,3.4764614E-3,-0E0,-1.0075134E-3,-2.879752E-4,1.8582382E-3,9.4457646E-4,-1.0527514E-3,-1.8040983E-3,4.2127227E-4,-3.1983256E-4,2.6560551E-4,-6.795364E-4,5.7291146E-4,1.16088435E-4,9.804012E-5,-3.6502228E-4,-2.2081456E-4,-4.646892E-4,-1.912593E-4,-6.2869955E-4,7.469499E-4,-6.8456086E-4,-6.585935E-4,-1.1434857E-3,1.5364704E-3,-1.1028497E-3,7.934713E-3,2.9957122E-3,-1.2353557E-3,2.393174E-3,3.3214167E-3,7.992276E-4,1.9435889E-4,-8.615789E-4,-4.1068075E-4,-9.0074004E-4,-1.1184508E-3,-1.3856991E-3,-1.231065E-3,-1.5060573E-3,-1.1611683E-3,-1.6240827E-3,4.181146E-3,9.902766E-4,-8.9177035E-4,2.5501028E-3,-1.7687904E-3,-1.998179E-3,-6.706253E-4,-1.8217562E-3,-0E0,5.8482727E-3,-7.957908E-4,4.273906E-3,1.2805498E-4,-1.9513674E-3,-2.1468436E-3,-2.2997954E-3],"split_indices":[1,0,3,1,1,0,3,2,0,0,3,0,1,0,3,1,0,2,2,2,1,0,3,2,1,0,1,0,3,0,0,2,2,2,1,2,0,2,1,1,1,1,3,2,1,1,3,2,1,2,2,2,1,0,0,1,1,1,1,0,1,1,2,0,1,1,3,1,0,2,3,1,0,3,2,1,0,0,0,0,2,0,0,0,0,2,3,1,1,2,0,0,3,1,0,2,1,2,1,2,0,1,1,2,1,3,0,3,2,1,2,0,2,0,1,0,1,3,0,1,1,3,0,1,1,0,1,0,0,0,0,0,0,0,0,0,0,0,0,0,0,0,0,0,0,0,0,0,0,0,0,0,0,0,0,0,0,0,0,0,0,0,0,0,0,0,0,0,0,0,0,0,0,0,0,0,0,0,0,0,0,0,0,0,0,0,0,0,0,0,0,0,0,0,0,0,0,0,0,0,0,0,0,0,0,0,0,0,0,0,0,0,0,0,0,0,0,0,0,0,0,0,0,0,0,0,0,0,0,0,0,0,0,0,0,0,0,0,0,0,0,0,0,0,0,0,0,0,0,0,0,0,0,0,0],"split_type":[0,0,0,0,0,0,0,0,0,0,0,0,0,0,0,0,0,0,0,0,0,0,0,0,0,0,0,0,0,0,0,0,0,0,0,0,0,0,0,0,0,0,0,0,0,0,0,0,0,0,0,0,0,0,0,0,0,0,0,0,0,0,0,0,0,0,0,0,0,0,0,0,0,0,0,0,0,0,0,0,0,0,0,0,0,0,0,0,0,0,0,0,0,0,0,0,0,0,0,0,0,0,0,0,0,0,0,0,0,0,0,0,0,0,0,0,0,0,0,0,0,0,0,0,0,0,0,0,0,0,0,0,0,0,0,0,0,0,0,0,0,0,0,0,0,0,0,0,0,0,0,0,0,0,0,0,0,0,0,0,0,0,0,0,0,0,0,0,0,0,0,0,0,0,0,0,0,0,0,0,0,0,0,0,0,0,0,0,0,0,0,0,0,0,0,0,0,0,0,0,0,0,0,0,0,0,0,0,0,0,0,0,0,0,0,0,0,0,0,0,0,0,0,0,0,0,0,0,0,0,0,0,0,0,0,0,0,0,0,0,0,0,0,0,0,0,0,0,0,0,0,0,0,0,0],"sum_hessian":[9.55497E5,3.28777E5,6.2672E5,8.9757E4,2.3902E5,3.82081E5,2.44639E5,3.1362E4,5.8395E4,6.9126E4,1.69894E5,5.0061E4,3.3202E5,1.32807E5,1.11832E5,4.086E3,2.7276E4,4.459E3,5.3936E4,3.9403E4,2.9723E4,1.38152E5,3.1742E4,3.811E3,4.625E4,1.97886E5,1.34134E5,2.456E3,1.30351E5,6.5632E4,4.62E4,4.38E2,3.648E3,1.3448E4,1.3828E4,2.705E3,1.754E3,3.299E3,5.0637E4,2.872E3,3.6531E4,7.775E3,2.1948E4,7.1776E4,6.6376E4,2.1283E4,1.0459E4,2.513E3,1.298E3,2.8969E4,1.7281E4,6.6298E4,1.31588E5,8.4554E4,4.958E4,3.67E2,2.089E3,5.8882E4,7.1469E4,6.46E2,6.4986E4,8E1,4.612E4,3.3E1,4.05E2,1.791E3,1.857E3,6.848E3,6.6E3,8.204E3,5.624E3,7.4E1,2.631E3,4.71E2,1.283E3,2.095E3,1.204E3,2.1135E4,2.9502E4,1.48E2,2.724E3,1.6867E4,1.9664E4,2.181E3,5.594E3,1.8093E4,3.855E3,7.373E3,6.4403E4,2.5911E4,4.0465E4,8.78E3,1.2503E4,7.117E3,3.342E3,1.95E2,2.318E3,7.15E2,5.83E2,1.393E3,2.7576E4,1.352E3,1.5929E4,4.975E3,6.1323E4,5.5958E4,7.563E4,1.7954E4,6.66E4,1.6944E4,3.2636E4,2.62E2,1.05E2,2.02E2,1.887E3,2.591E4,3.2972E4,4.948E4,2.1989E4,7.6E1,5.7E2,6.4055E4,9.31E2,1.1E1,6.9E1,2.914E3,4.3206E4,1.9E1,1.4E1,2.24E2,1.81E2,1.089E3,7.02E2,1.082E3,7.75E2,1.435E3,5.413E3,2.773E3,3.827E3,5.704E3,2.5E3,8.78E2,4.746E3,3.6E1,3.8E1,6.93E2,1.938E3,4.21E2,5E1,9.89E2,2.94E2,8.48E2,1.247E3,3.24E2,8.8E2,3.318E3,1.7817E4,1.1794E4,1.7708E4,9.3E1,5.5E1,7.17E2,2.007E3,6.032E3,1.0835E4,9.11E3,1.0554E4,1.119E3,1.062E3,8.01E2,4.793E3,1.91E2,1.7902E4,3.343E3,5.12E2,3.248E3,4.125E3,2.5672E4,3.8731E4,2.45E2,2.5666E4,2.1694E4,1.8771E4,1.565E3,7.215E3,5.428E3,7.075E3,2.625E3,4.492E3,6.96E2,2.646E3,1.72E2,2.3E1,1.194E3,1.124E3,6.23E2,9.2E1,4.73E2,1.1E2,1.003E3,3.9E2,8.188E3,1.9388E4,6.59E2,6.93E2,1.0361E4,5.568E3,8.21E2,4.154E3,2.6455E4,3.4868E4,4.2577E4,1.3381E4,3.2098E4,4.3532E4,1.5395E4,2.559E3,6.23E2,6.5977E4,1.4353E4,2.591E3,1.48E2,3.2488E4,4.5E1,2.17E2,8.9E1,1.6E1,9E1,1.12E2,1.222E3,6.65E2,3.165E3,2.2745E4,2.1422E4,1.155E4,2.9697E4,1.9783E4,1.928E3,2.0061E4,2.4E1,5.2E1,5.44E2,2.6E1,2.6529E4,3.7526E4,7.06E2,2.25E2,3E0,8E0,6.8E1,1E0,5.2E1,2.862E3,6.477E3,3.6729E4],"tree_param":{"num_deleted":"0","num_feature":"5","num_nodes":"255","size_leaf_vector":"1"}},{"base_weights":[-2.1724296E-5,5.6220073E-2,-3.0067336E-2,1.0825119E-1,3.7574675E-2,-7.0637222E-3,-6.4977475E-2,1.548858E-1,8.3205126E-2,7.858557E-2,2.1192415E-2,4.2887304E-2,-1.2674226E-2,-5.027307E-2,-8.284962E-2,1.7652199E-1,1.2621057E-1,1.8699028E-1,7.444842E-2,1.02112986E-1,6.159685E-2,3.1024132E-2,-2.3217363E-2,1.2630531E-1,3.3444118E-2,-2.9623706E-4,-2.6674347E-2,3.0313827E-2,-5.121268E-2,-7.581168E-2,-9.157482E-2,1.424751E-1,2.0675415E-1,1.4855844E-1,1.1203089E-1,1.6375849E-1,2.621946E-1,8.191233E-2,3.391062E-2,1.21044256E-1,8.5685514E-2,8.108495E-2,4.5470588E-2,4.343047E-2,2.1229783E-2,-9.09306E-3,-5.0239787E-2,2.0623964E-1,8.8857986E-2,5.3214837E-2,8.81539E-3,1.6134154E-2,-7.192129E-3,-1.4541567E-2,-3.280751E-2,6.96951E-2,-2.2729632E-2,-4.2592432E-2,-5.8689386E-2,-7.885488E-2,-5.767015E-2,2.0565353E-1,-9.162519E-2,2.1327384E-1,1.2260063E-1,2.6306894E-1,1.8743819E-1,1.4640184E-1,2.4249884E-1,1.2422221E-1,4.7802318E-2,2.3166549E-1,1.3673344E-1,3.131144E-1,2.1700497E-1,1.0975154E-1,6.892797E-2,6.8726234E-2,1.509858E-2,1.2988372E-1,1.0835531E-1,3.6147237E-2,9.2504025E-2,1.05984144E-1,7.303059E-2,5.4232933E-2,3.7099286E-3,6.325212E-2,3.508434E-2,3.31399E-2,1.3863232E-2,3.9527235E-3,-1.634626E-2,-4.149864E-2,-7.080268E-2,2.7583408E-1,1.3278326E-1,1.3328107E-1,4.096205E-2,5.8704954E-2,8.41861E-3,1.6246332E-2,-4.457144E-2,2.5400363E-2,7.7363965E-3,-1.3902702E-3,-1.62365E-2,-2.897335E-3,-2.2169162E-2,-2.7307888E-2,-4.4867594E-2,2.6043683E-1,4.7400326E-2,5.771691E-3,-4.450988E-2,-3.6842976E-2,-5.34077E-2,-3.270341E-2,-5.966152E-2,-7.3622465E-2,-8.293046E-2,1.9171081E-2,-6.0369868E-2,2.925731E-1,-4.6582942E-4,-8.7211855E-2,-9.3360305E-2,2.1992829E-3,5.2709137E-3,3.3714573E-3,1.974517E-3,4.99789E-3,6.7057E-3,4.9707214E-3,3.799532E-3,3.2925305E-3,3.7969088E-3,7.739605E-3,1.8583473E-3,3.1356297E-3,2.7331016E-3,1.6875721E-3,3.591933E-4,8.220492E-3,4.860413E-3,3.346393E-3,-3.3580355E-4,6.843807E-3,9.091533E-3,7.1273847E-3,4.4042324E-3,3.9833975E-3,2.3593165E-3,2.154327E-3,1.3163397E-3,1.9864696E-3,1.7377497E-4,-1.4567118E-4,7.162987E-4,3.3101686E-3,2.6888095E-3,2.727588E-3,1.4145182E-3,1.4342823E-3,5.0542154E-4,2.5095765E-3,1.9724048E-3,2.1940065E-3,2.8443781E-3,2.0570876E-3,1.4021561E-3,1.5533272E-3,9.469798E-4,2.632903E-4,-1.1359528E-3,6.0878805E-4,1.6575613E-3,-8.441942E-5,9.1932743E-4,9.598902E-4,3.4394307E-4,4.2924803E-4,-2.028546E-5,4.936908E-4,-5.9411203E-5,-2.2049574E-4,-5.680614E-4,-5.8808055E-4,-1.2253845E-3,-1.2802867E-3,-1.9365745E-3,6.2887743E-3,1.07057765E-2,4.761278E-3,1.5744078E-3,3.8593668E-3,2.4899566E-3,1.3355423E-3,-9.051035E-4,1.8612588E-3,1.1031937E-3,7.601462E-4,-2.8502403E-4,9.370433E-4,1.9402591E-4,-6.0460635E-4,-1.6087708E-3,-3.1588643E-4,6.860699E-4,-3.158891E-4,2.5436477E-4,1.753501E-4,-1.6929438E-4,-3.37269E-4,-6.7042076E-4,-3.7935883E-5,-7.4096635E-4,-4.7014884E-4,-9.295071E-4,-6.0817867E-4,-8.495808E-4,-8.4650423E-4,-1.1920412E-3,2.620609E-3,8.164166E-3,1.6735459E-3,6.307955E-4,-4.1391933E-4,2.025238E-3,1.840488E-3,-1.1415727E-3,-3.452526E-4,-9.132218E-4,-9.086817E-4,-1.3351016E-3,2.7418535E-4,-8.753591E-4,-1.4699472E-3,-1.1983042E-3,-1.8134068E-3,-1.5952296E-3,-1.8108509E-3,-2.0093217E-3,-2.208931E-4,2.5160783E-3,-1.2450006E-3,-1.5405002E-3,8.496851E-3,-0E0,-2.1230339E-3,-1.7610993E-3,-2.2336342E-3,-1.9790926E-3],"categories":[],"categories_nodes":[],"categories_segments":[],"categories_sizes":[],"default_left":[0,0,0,0,0,0,0,0,0,0,0,0,0,0,0,0,0,0,0,0,0,0,0,0,0,0,0,0,0,0,0,0,0,0,0,0,0,0,0,0,0,0,0,0,0,0,0,0,0,0,0,0,0,0,0,0,0,0,0,0,0,0,0,0,0,0,0,0,0,0,0,0,0,0,0,0,0,0,0,0,0,0,0,0,0,0,0,0,0,0,0,0,0,0,0,0,0,0,0,0,0,0,0,0,0,0,0,0,0,0,0,0,0,0,0,0,0,0,0,0,0,0,0,0,0,0,0,0,0,0,0,0,0,0,0,0,0,0,0,0,0,0,0,0,0,0,0,0,0,0,0,0,0,0,0,0,0,0,0,0,0,0,0,0,0,0,0,0,0,0,0,0,0,0,0,0,0,0,0,0,0,0,0,0,0,0,0,0,0,0,0,0,0,0,0,0,0,0,0,0,0,0,0,0,0,0,0,0,0,0,0,0,0,0,0,0,0,0,0,0,0,0,0,0,0,0,0,0,0,0,0,0,0,0,0,0,0,0,0,0,0,0,0,0,0,0,0,0,0,0,0,0,0],"id":2,"left_children":[1,3,5,7,9,11,13,15,17,19,21,23,25,27,29,31,33,35,37,39,41,43,45,47,49,51,53,55,57,59,61,63,65,67,69,71,73,75,77,79,81,83,85,87,89,91,93,95,97,99,101,103,105,107,109,111,113,115,117,119,121,123,125,127,129,131,133,135,137,139,141,143,145,147,149,151,153,155,157,159,161,163,165,167,169,171,173,175,177,179,181,183,185,187,189,191,193,195,197,199,201,203,205,207,209,211,213,215,217,219,221,223,225,227,229,231,233,235,237,239,241,243,245,247,-1,249,251,-1,-1,-1,-1,-1,-1,-1,-1,-1,-1,-1,-1,-1,-1,-1,-1,-1,-1,-1,-1,-1,-1,-1,-1,-1,-1,-1,-1,-1,-1,-1,-1,-1,-1,-1,-1,-1,-1,-1,-1,-1,-1,-1,-1,-1,-1,-1,-1,-1,-1,-1,-1,-1,-1,-1,-1,-1,-1,-1,-1,-1,-1,-1,-1,-1,-1,-1,-1,-1,-1,-1,-1,-1,-1,-1,-1,-1,-1,-1,-1,-1,-1,-1,-1,-1,-1,-1,-1,-1,-1,-1,-1,-1,-1,-1,-1,-1,-1,-1,-1,-1,-1,-1,-1,-1,-1,-1,-1,-1,-1,-1,-1,-1,-1,-1,-1,-1,-1,-1,-1,-1,-1,-1,-1,-1,-1],"loss_changes":[1.6147378E3,3.2276978E2,5.0016736E2,1.0246033E2,1.6456085E2,1.0521834E2,6.49884E1,1.892688E1,5.183722E1,2.7910522E1,7.6431496E1,2.9834648E1,5.8490845E1,1.028479E1,6.8186646E0,1.785498E1,4.1058197E0,7.585327E0,1.5917999E1,9.062683E0,1.2738785E1,1.740561E1,1.2102312E1,1.1447727E1,1.6577534E1,2.0298216E1,1.1779762E1,3.2788253E0,8.6297E0,3.3858643E0,7.917175E-1,1.146257E1,9.859833E0,8.882599E-1,6.300003E0,6.1096954E0,2.1374588E0,1.6037628E1,5.3576527E0,1.4592438E0,5.281906E0,3.6447525E0,8.128677E0,1.0442177E1,7.0216103E0,1.9737014E0,1.9367065E0,6.1148834E0,5.5615883E0,4.6376724E0,6.0186834E0,4.117139E0,6.6203275E0,4.7217264E0,6.9662857E0,3.758645E0,4.194147E-1,3.8611374E0,1.7994232E0,1.0943909E0,1.8536015E0,2.2212654E-1,3.3840942E-1,1.7475662E0,4.833908E0,2.1357727E0,3.9862213E0,4.2865753E-1,1.3708434E0,4.1214752E-1,9.715564E-1,2.7179108E0,1.5131111E0,4.3949127E-1,1.2612324E0,8.50177E0,8.893738E0,2.6088715E0,1.7037358E0,1.184372E0,1.7151184E0,6.7454743E-1,1.6728973E0,7.839966E-1,2.60746E0,2.921505E0,1.4628425E0,4.5552673E0,6.1822433E0,4.1317787E0,3.05859E0,8.0989873E-1,7.115388E-1,1.2775831E0,5.5864143E-1,7.9516983E-1,2.642621E0,1.0513229E0,1.5380974E0,4.0302505E0,9.9773264E-1,2.4901943E0,8.0480456E-1,3.3761787E0,1.7329501E0,3.864539E0,1.2026262E0,7.715208E-1,1.2919331E0,1.0398712E0,1.5962906E0,9.9918413E-1,3.732859E-1,5.4558194E-1,1.7178452E-1,1.4268799E0,8.905716E-1,4.7847295E-1,1.3761139E0,3.734436E-1,2.859497E-1,7.6053804E-1,2.829361E-1,1.6915077E-1,0E0,3.539276E-1,1.7919922E-1,0E0,0E0,0E0,0E0,0E0,0E0,0E0,0E0,0E0,0E0,0E0,0E0,0E0,0E0,0E0,0E0,0E0,0E0,0E0,0E0,0E0,0E0,0E0,0E0,0E0,0E0,0E0,0E0,0E0,0E0,0E0,0E0,0E0,0E0,0E0,0E0,0E0,0E0,0E0,0E0,0E0,0E0,0E0,0E0,0E0,0E0,0E0,0E0,0E0,0E0,0E0,0E0,0E0,0E0,0E0,0E0,0E0,0E0,0E0,0E0,0E0,0E0,0E0,0E0,0E0,0E0,0E0,0E0,0E0,0E0,0E0,0E0,0E0,0E0,0E0,0E0,0E0,0E0,0E0,0E0,0E0,0E0,0E0,0E0,0E0,0E0,0E0,0E0,0E0,0E0,0E0,0E0,0E0,0E0,0E0,0E0,0E0,0E0,0E0,0E0,0E0,0E0,0E0,0E0,0E0,0E0,0E0,0E0,0E0,0E0,0E0,0E0,0E0,0E0,0E0,0E0,0E0,0E0,0E0,0E0,0E0,0E0,0E0,0E0,0E0,0E0],"parents":[2147483647,0,0,1,1,2,2,3,3,4,4,5,5,6,6,7,7,8,8,9,9,10,10,11,11,12,12,13,13,14,14,15,15,16,16,17,17,18,18,19,19,20,20,21,21,22,22,23,23,24,24,25,25,26,26,27,27,28,28,29,29,30,30,31,31,32,32,33,33,34,34,35,35,36,36,37,37,38,38,39,39,40,40,41,41,42,42,43,43,44,44,45,45,46,46,47,47,48,48,49,49,50,50,51,51,52,52,53,53,54,54,55,55,56,56,57,57,58,58,59,59,60,60,61,61,62,62,63,63,64,64,65,65,66,66,67,67,68,68,69,69,70,70,71,71,72,72,73,73,74,74,75,75,76,76,77,77,78,78,79,79,80,80,81,81,82,82,83,83,84,84,85,85,86,86,87,87,88,88,89,89,90,90,91,91,92,92,93,93,94,94,95,95,96,96,97,97,98,98,99,99,100,100,101,101,102,102,103,103,104,104,105,105,106,106,107,107,108,108,109,109,110,110,111,111,112,112,113,113,114,114,115,115,116,116,117,117,118,118,119,119,120,120,121,121,122,122,123,123,125,125,126,126],"right_children":[2,4,6,8,10,12,14,16,18,20,22,24,26,28,30,32,34,36,38,40,42,44,46,48,50,52,54,56,58,60,62,64,66,68,70,72,74,76,78,80,82,84,86,88,90,92,94,96,98,100,102,104,106,108,110,112,114,116,118,120,122,124,126,128,130,132,134,136,138,140,142,144,146,148,150,152,154,156,158,160,162,164,166,168,170,172,174,176,178,180,182,184,186,188,190,192,194,196,198,200,202,204,206,208,210,212,214,216,218,220,222,224,226,228,230,232,234,236,238,240,242,244,246,248,-1,250,252,-1,-1,-1,-1,-1,-1,-1,-1,-1,-1,-1,-1,-1,-1,-1,-1,-1,-1,-1,-1,-1,-1,-1,-1,-1,-1,-1,-1,-1,-1,-1,-1,-1,-1,-1,-1,-1,-1,-1,-1,-1,-1,-1,-1,-1,-1,-1,-1,-1,-1,-1,-1,-1,-1,-1,-1,-1,-1,-1,-1,-1,-1,-1,-1,-1,-1,-1,-1,-1,-1,-1,-1,-1,-1,-1,-1,-1,-1,-1,-1,-1,-1,-1,-1,-1,-1,-1,-1,-1,-1,-1,-1,-1,-1,-1,-1,-1,-1,-1,-1,-1,-1,-1,-1,-1,-1,-1,-1,-1,-1,-1,-1,-1,-1,-1,-1,-1,-1,-1,-1,-1,-1,-1,-1,-1,-1],"split_conditions":[-4.4832522E-1,-7.701046E-1,3.5757512E-1,-1.1347166E0,-1.184831E0,-1.3333498E0,1.1034547E0,-1.1248302E0,-1.9165432E0,-4.5930862E-2,1.7911007E-1,-2.1130996E0,1.9343928E-1,-1.5120807E0,1.8264389E0,-1.4558692E0,-1.5221287E0,-9.307499E-1,1.5371307E0,-1.4911854E0,-1.4911854E0,-5.431999E-2,7.985478E-1,4.7514772E-1,2.6699984E-1,-5.5269223E-1,-5.325238E-1,1.0075171E0,6.375371E-1,-3.570044E-1,-2.2910419E0,-1.8372077E0,-1.6115664E0,-1.1507371E-1,1.7370678E0,-2.2910419E0,-2.1130996E0,-8.618494E-1,-1.4831029E0,-1.672164E0,-1.3657768E0,-1.9147826E0,7.070172E-2,-9.229895E-1,-8.618494E-1,-8.044329E-1,1.5131392E0,2.6699984E-1,1.6303982E-1,1.4171839E0,1.3415141E0,-1.6234547E-1,-1.4828832E-1,5.31833E-1,8.28485E-1,-2.1130996E0,-4.4795433E-1,8.449588E-1,-1.0016177E0,1.3528621E0,-1.5435543E0,1.3665812E0,2.1062863E0,-2.1130996E0,2.2164702E0,-1.3160565E0,-1.3403615E0,-1.2149297E0,7.820641E-1,-1.277514E0,-1.2976052E0,1.1720723E0,2.4106958E0,-3.2695368E-1,4.414066E-2,-1.5120807E0,-1.2303672E0,2.0893705E0,-1.5331244E0,-3.0861625E-1,1.6910429E0,1.6485869E0,-4.4273496E-1,1.050422E0,5.632415E-1,7.820641E-1,1.1570212E0,-1.2332519E0,-1.1973429E0,8.4660447E-1,7.325854E-1,1.770388E-1,4.2022473E-1,-7.7099776E-1,-7.603215E-1,1.586519E-1,-2.2910419E0,-2.2910419E0,1.7891675E0,-1.650049E0,-1.6918156E0,-1.7388906E0,1.7370678E0,-1.1973429E0,-9.9885184E-1,-2.3553036E-1,2.65297E-1,9.880572E-1,1.6116883E0,2.0018798E-1,-2.99334E-2,-4.2488977E-1,-1.6918156E0,-6.160874E-1,1.204997E0,-8.1785595E-1,-6.687545E-1,-1.2531099E-1,1.3300802E0,-1.1935519E0,2.774377E-1,7.693356E-1,4.904572E-1,2.1960669E0,-4.6582942E-4,-8.506726E-2,3.3695464E0,2.1992829E-3,5.2709137E-3,3.3714573E-3,1.974517E-3,4.99789E-3,6.7057E-3,4.9707214E-3,3.799532E-3,3.2925305E-3,3.7969088E-3,7.739605E-3,1.8583473E-3,3.1356297E-3,2.7331016E-3,1.6875721E-3,3.591933E-4,8.220492E-3,4.860413E-3,3.346393E-3,-3.3580355E-4,6.843807E-3,9.091533E-3,7.1273847E-3,4.4042324E-3,3.9833975E-3,2.3593165E-3,2.154327E-3,1.3163397E-3,1.9864696E-3,1.7377497E-4,-1.4567118E-4,7.162987E-4,3.3101686E-3,2.6888095E-3,2.727588E-3,1.4145182E-3,1.4342823E-3,5.0542154E-4,2.5095765E-3,1.9724048E-3,2.1940065E-3,2.8443781E-3,2.0570876E-3,1.4021561E-3,1.5533272E-3,9.469798E-4,2.632903E-4,-1.1359528E-3,6.0878805E-4,1.6575613E-3,-8.441942E-5,9.1932743E-4,9.598902E-4,3.4394307E-4,4.2924803E-4,-2.028546E-5,4.936908E-4,-5.9411203E-5,-2.2049574E-4,-5.680614E-4,-5.8808055E-4,-1.2253845E-3,-1.2802867E-3,-1.9365745E-3,6.2887743E-3,1.07057765E-2,4.761278E-3,1.5744078E-3,3.8593668E-3,2.4899566E-3,1.3355423E-3,-9.051035E-4,1.8612588E-3,1.1031937E-3,7.601462E-4,-2.8502403E-4,9.370433E-4,1.9402591E-4,-6.0460635E-4,-1.6087708E-3,-3.1588643E-4,6.860699E-4,-3.158891E-4,2.5436477E-4,1.753501E-4,-1.6929438E-4,-3.37269E-4,-6.7042076E-4,-3.7935883E-5,-7.4096635E-4,-4.7014884E-4,-9.295071E-4,-6.0817867E-4,-8.495808E-4,-8.4650423E-4,-1.1920412E-3,2.620609E-3,8.164166E-3,1.6735459E-3,6.307955E-4,-4.1391933E-4,2.025238E-3,1.840488E-3,-1.1415727E-3,-3.452526E-4,-9.132218E-4,-9.086817E-4,-1.3351016E-3,2.7418535E-4,-8.753591E-4,-1.4699472E-3,-1.1983042E-3,-1.8134068E-3,-1.5952296E-3,-1.8108509E-3,-2.0093217E-3,-2.208931E-4,2.5160783E-3,-1.2450006E-3,-1.5405002E-3,8.496851E-3,-0E0,-2.1230339E-3,-1.7610993E-3,-2.2336342E-3,-1.9790926E-3],"split_indices":[1,0,3,1,1,0,3,0,0,0,3,0,1,0,3,3,1,3,4,1,1,0,3,4,1,0,0,1,3,4,0,1,0,3,4,0,0,1,0,1,3,1,3,1,1,1,3,1,1,4,4,1,3,1,1,0,4,1,0,3,0,1,3,0,4,3,1,3,4,1,1,4,4,3,4,0,0,4,3,0,4,4,0,4,0,4,3,3,3,4,4,0,3,1,1,3,0,0,4,0,0,0,4,3,3,1,3,4,1,3,3,4,0,4,1,0,0,1,0,4,1,4,0,3,0,4,1,0,0,0,0,0,0,0,0,0,0,0,0,0,0,0,0,0,0,0,0,0,0,0,0,0,0,0,0,0,0,0,0,0,0,0,0,0,0,0,0,0,0,0,0,0,0,0,0,0,0,0,0,0,0,0,0,0,0,0,0,0,0,0,0,0,0,0,0,0,0,0,0,0,0,0,0,0,0,0,0,0,0,0,0,0,0,0,0,0,0,0,0,0,0,0,0,0,0,0,0,0,0,0,0,0,0,0,0,0,0,0,0,0,0,0,0,0,0,0,0,0,0,0,0,0,0],"split_type":[0,0,0,0,0,0,0,0,0,0,0,0,0,0,0,0,0,0,0,0,0,0,0,0,0,0,0,0,0,0,0,0,0,0,0,0,0,0,0,0,0,0,0,0,0,0,0,0,0,0,0,0,0,0,0,0,0,0,0,0,0,0,0,0,0,0,0,0,0,0,0,0,0,0,0,0,0,0,0,0,0,0,0,0,0,0,0,0,0,0,0,0,0,0,0,0,0,0,0,0,0,0,0,0,0,0,0,0,0,0,0,0,0,0,0,0,0,0,0,0,0,0,0,0,0,0,0,0,0,0,0,0,0,0,0,0,0,0,0,0,0,0,0,0,0,0,0,0,0,0,0,0,0,0,0,0,0,0,0,0,0,0,0,0,0,0,0,0,0,0,0,0,0,0,0,0,0,0,0,0,0,0,0,0,0,0,0,0,0,0,0,0,0,0,0,0,0,0,0,0,0,0,0,0,0,0,0,0,0,0,0,0,0,0,0,0,0,0,0,0,0,0,0,0,0,0,0,0,0,0,0,0,0,0,0,0,0,0,0,0,0,0,0,0,0,0,0,0,0,0,0,0,0],"sum_hessian":[9.55564E5,3.32729E5,6.22835E5,8.7773E4,2.44956E5,3.75446E5,2.47389E5,3.0662E4,5.7111E4,6.9915E4,1.75041E5,3.7908E4,3.37538E5,1.35732E5,1.11657E5,1.7465E4,1.3197E4,4.438E3,5.2673E4,2.9307E4,4.0608E4,1.43316E5,3.1725E4,3.85E3,3.4058E4,1.79153E5,1.58385E5,1.562E3,1.3417E5,6.1827E4,4.983E4,8.224E3,9.241E3,5.109E3,8.088E3,3.399E3,1.039E3,4.4478E4,8.195E3,1.3604E4,1.5703E4,1.8379E4,2.2229E4,6.3218E4,8.0098E4,2.084E4,1.0885E4,1.223E3,2.627E3,1.8888E4,1.517E4,5.2957E4,1.26196E5,5.319E4,1.05195E5,8.97E2,6.65E2,6.2335E4,7.1835E4,5.2932E4,8.895E3,6E0,4.9824E4,1.795E3,6.429E3,2.349E3,6.892E3,5.003E3,1.06E2,6.794E3,1.294E3,9.6E2,2.439E3,4.79E2,5.6E2,1.4137E4,3.0341E4,2.87E3,5.325E3,7.997E3,5.607E3,1.904E3,1.3799E4,4.48E3,1.3899E4,1.8371E4,3.858E3,1.8722E4,4.4496E4,3.06E4,4.9498E4,7.442E3,1.3398E4,7.648E3,3.237E3,6.23E2,6E2,1.359E3,1.268E3,1.6823E4,2.065E3,1.332E4,1.85E3,2.5168E4,2.7789E4,7.6888E4,4.9308E4,2.1059E4,3.2131E4,7.2261E4,3.2934E4,9E1,8.07E2,2.87E2,3.78E2,4.0714E4,2.1621E4,2.598E3,6.9237E4,2.3213E4,2.9719E4,3E2,8.595E3,4E0,2E0,1.4121E4,3.5703E4,1.21E2,1.674E3,4.317E3,2.112E3,6.34E2,1.715E3,3.845E3,3.047E3,3.172E3,1.831E3,6.8E1,3.8E1,3.677E3,3.117E3,7.53E2,5.41E2,1.77E2,7.83E2,2.376E3,6.3E1,3.64E2,1.15E2,1.47E2,4.13E2,2.162E3,1.1975E4,1.1649E4,1.8692E4,2.309E3,5.61E2,2.206E3,3.119E3,5.109E3,2.888E3,4.952E3,6.55E2,7.19E2,1.185E3,5.796E3,8.003E3,2.256E3,2.224E3,7.07E3,6.829E3,1.0354E4,8.017E3,3.379E3,4.79E2,2.756E3,1.5966E4,3.784E3,4.0712E4,2.2039E4,8.561E3,3.8521E4,1.0977E4,2.066E3,5.376E3,6.931E3,6.467E3,2.876E3,4.772E3,1.262E3,1.975E3,5.93E2,3E1,2.94E2,3.06E2,6.64E2,6.95E2,1.065E3,2.03E2,6.474E3,1.0349E4,9.6E2,1.105E3,3.438E3,9.882E3,1.018E3,8.32E2,2.065E3,2.3103E4,3.429E3,2.436E4,3.0389E4,4.6499E4,4.212E4,7.188E3,2.0139E4,9.2E2,2.817E4,3.961E3,6.0039E4,1.2222E4,1.1986E4,2.0948E4,3.5E1,5.5E1,3.78E2,4.29E2,2.23E2,6.4E1,8E0,3.7E2,2.695E3,3.8019E4,3.342E3,1.8279E4,2.19E2,2.379E3,5.5995E4,1.3242E4,1.6424E4,6.789E3,5.755E3,2.3964E4,2.27E2,7.3E1,3.093E3,5.502E3,3E0,1E0,1.2144E4,1.977E3,3.3626E4,2.077E3],"tree_param":{"num_deleted":"0","num_feature":"5","num_nodes":"253","size_leaf_vector":"1"}},{"base_weights":[1.5951013E-4,3.4421433E-2,-4.3843955E-2,6.1427526E-2,1.8705228E-2,-2.3242284E-2,-6.849557E-2,2.5008334E-2,8.993394E-2,7.87616E-3,6.6644475E-2,-2.6924787E-2,2.7969321E-2,-5.570102E-2,-8.186254E-2,3.3065243E-4,4.3670323E-2,1.2826538E-1,7.397255E-2,-7.7232085E-3,2.0148255E-2,1.1284117E-1,4.334521E-2,-1.679533E-2,-3.8326144E-2,-8.665863E-3,9.571763E-2,-5.7198588E-2,2.681358E-2,7.957307E-2,-8.2283E-2,5.3807113E-2,-7.223778E-3,1.119777E-1,2.9908853E-2,1.1996671E-1,2.1621715E-1,6.2048305E-2,1.4534305E-1,-2.5268672E-2,-7.1307604E-4,4.3871146E-2,2.5474865E-3,8.9400046E-2,1.7132089E-1,3.3499558E-2,1.4488187E-1,-2.64983E-2,3.3653183E-3,-3.242469E-2,-4.472303E-2,-2.3382694E-2,2.074043E-2,7.730322E-2,2.2964047E-1,-5.0133012E-2,-6.3373856E-2,2.6290974E-4,1.2878852E-1,3.5815063E-1,5.4700866E-2,-7.6095805E-2,-8.798374E-2,-7.922209E-3,7.552445E-2,2.4046019E-2,-1.3347676E-2,9.364501E-2,1.6641976E-1,1.4562067E-2,5.1025473E-2,1.5280251E-1,1.03575684E-1,1.8607236E-1,2.712981E-1,4.3333903E-2,7.651292E-2,1.2196489E-1,2.0539647E-1,-3.2914367E-2,-1.6976656E-2,1.0963048E-2,-1.671632E-2,3.0243713E-2,5.6253973E-2,1.1184914E-2,-8.049142E-3,1.2336514E-1,6.538924E-2,1.56926E-1,2.654348E-1,2.6480963E-2,6.749722E-2,2.6675218E-1,1.261789E-1,-4.4261567E-2,-2.2987392E-2,-1.7848761E-3,2.9169193E-2,-4.4728696E-2,-2.6039068E-2,-4.979638E-2,-3.7673704E-2,-1.3900264E-3,-3.4492392E-2,3.358156E-2,-8.820267E-3,9.850889E-2,2.1332512E-2,2.9613298E-1,1.5037489E-1,-5.2646164E-2,-3.2862902E-3,-6.9332734E-2,-5.3728726E-2,5.6269966E-2,-1.4803828E-2,3.1420124E-1,1.0861231E-1,-5.4917706E-5,3.8416073E-1,3.0116278E-3,1.1583016E-1,-8.016981E-2,-5.4523345E-2,-6.5492064E-2,-8.9133285E-2,-5.935131E-4,4.7765186E-4,9.820464E-4,2.8194308E-3,-6.083084E-4,1.1712807E-3,7.13657E-5,-5.074491E-4,1.9803348E-3,2.641513E-3,3.5757348E-3,5.119259E-3,-1.17416006E-4,4.762369E-4,7.948623E-4,1.4632166E-3,3.5583926E-3,5.104894E-3,1.8224106E-3,2.8185013E-3,5.229336E-3,3.909266E-3,7.156398E-3,4.0468713E-3,8.060697E-4,1.5556366E-3,1.5179344E-3,2.1933254E-3,2.5438305E-3,3.5361692E-3,6.699589E-3,4.333896E-3,-1.3858273E-4,-8.3398266E-4,-2.0991951E-4,-7.4452686E-4,1.0653642E-4,7.0441025E-4,-5.199599E-4,-1.4705588E-4,4.8924447E-4,1.2254165E-3,1.1337989E-3,1.8055803E-3,1.02959086E-4,6.653177E-4,-3.315565E-4,1.454297E-4,2.5021066E-3,3.933184E-3,2.6514714E-3,1.4656447E-3,5.4345466E-3,3.3074198E-3,7.724775E-3,4.577412E-3,2.2267089E-4,9.2925463E-4,1.202561E-3,2.629971E-3,5.2182684E-3,9.467945E-3,2.464553E-3,3.966361E-3,-1.2631402E-3,-9.1960235E-4,-6.6386745E-4,-2.1973347E-4,1.7803397E-4,-2.925573E-4,1.0669273E-3,2.6790868E-4,-1.2822861E-3,-9.35057E-4,-6.339452E-4,1.5664708E-3,-1.3514258E-3,-1.0708189E-3,-1.3233281E-3,-7.5519667E-4,1.2137834E-3,-1.4422137E-4,-1.1912965E-3,-6.700532E-4,9.116596E-5,1.0602542E-3,-8.7288325E-5,-1.5871858E-3,4.3129446E-3,2.052549E-3,2.3264482E-3,3.3316374E-4,9.649351E-3,5.614276E-3,9.114482E-3,3.1590804E-3,-1.3084651E-3,-8.149738E-4,4.022109E-3,-1.9943096E-4,-1.525865E-3,-1.7356094E-3,-1.4254312E-3,-9.6025225E-4,4.4088106E-4,2.3577851E-3,-5.2413705E-4,6.2962744E-4,-1.248093E-4,7.7924663E-3,6.6526956E-4,3.6947436E-3,-1.613511E-5,9.812654E-3,5.1458552E-3,-1.576873E-4,5.3867325E-3,1.4679241E-3,-1.803078E-3,-1.9581835E-3,-1.3627082E-3,4.1857737E-4,-1.8148206E-3,-7.7632064E-4,-1.6078673E-3,-2.1364787E-3],"categories":[],"categories_nodes":[],"categories_segments":[],"categories_sizes":[],"default_left":[0,0,0,0,0,0,0,0,0,0,0,0,0,0,0,0,0,0,0,0,0,0,0,0,0,0,0,0,0,0,0,0,0,0,0,0,0,0,0,0,0,0,0,0,0,0,0,0,0,0,0,0,0,0,0,0,0,0,0,0,0,0,0,0,0,0,0,0,0,0,0,0,0,0,0,0,0,0,0,0,0,0,0,0,0,0,0,0,0,0,0,0,0,0,0,0,0,0,0,0,0,0,0,0,0,0,0,0,0,0,0,0,0,0,0,0,0,0,0,0,0,0,0,0,0,0,0,0,0,0,0,0,0,0,0,0,0,0,0,0,0,0,0,0,0,0,0,0,0,0,0,0,0,0,0,0,0,0,0,0,0,0,0,0,0,0,0,0,0,0,0,0,0,0,0,0,0,0,0,0,0,0,0,0,0,0,0,0,0,0,0,0,0,0,0,0,0,0,0,0,0,0,0,0,0,0,0,0,0,0,0,0,0,0,0,0,0,0,0,0,0,0,0,0,0,0,0,0,0,0,0,0,0,0,0,0,0,0,0,0,0,0,0,0,0,0,0,0,0,0,0,0,0],"id":3,"left_children":[1,3,5,7,9,11,13,15,17,19,21,23,25,27,29,31,33,35,37,39,41,43,45,47,49,51,53,55,57,59,61,63,65,67,69,71,73,75,77,79,81,83,85,87,89,91,93,95,97,99,101,103,105,107,109,111,113,115,117,119,121,123,125,127,129,131,133,135,137,139,141,143,145,147,149,151,153,155,157,159,161,163,165,167,169,171,173,175,177,179,181,183,185,187,189,191,193,195,197,199,201,203,205,207,209,211,213,215,217,219,221,223,225,227,229,231,233,235,237,-1,239,241,243,245,247,249,251,-1,-1,-1,-1,-1,-1,-1,-1,-1,-1,-1,-1,-1,-1,-1,-1,-1,-1,-1,-1,-1,-1,-1,-1,-1,-1,-1,-1,-1,-1,-1,-1,-1,-1,-1,-1,-1,-1,-1,-1,-1,-1,-1,-1,-1,-1,-1,-1,-1,-1,-1,-1,-1,-1,-1,-1,-1,-1,-1,-1,-1,-1,-1,-1,-1,-1,-1,-1,-1,-1,-1,-1,-1,-1,-1,-1,-1,-1,-1,-1,-1,-1,-1,-1,-1,-1,-1,-1,-1,-1,-1,-1,-1,-1,-1,-1,-1,-1,-1,-1,-1,-1,-1,-1,-1,-1,-1,-1,-1,-1,-1,-1,-1,-1,-1,-1,-1,-1,-1,-1,-1,-1,-1,-1,-1,-1],"loss_changes":[1.4418988E3,2.2821387E2,2.1261609E2,2.0533984E2,1.7645343E2,4.3014923E1,3.2569275E1,3.9995228E1,6.78349E1,5.308434E1,6.738425E1,2.4566559E1,3.7985634E1,1.20433655E1,6.3466797E0,1.51169615E1,4.646173E1,2.3690674E1,6.66254E1,1.5013892E1,6.479649E1,2.870758E1,4.1595444E1,2.2046057E1,3.766571E0,4.300004E0,1.3160431E1,4.1528015E0,4.68981E0,1.582474E0,3.2418823E0,6.2183847E0,6.27627E0,8.200256E0,1.3331848E1,1.5969452E1,4.4609528E0,1.815097E1,1.5631622E1,2.2026615E0,1.6303013E1,1.114016E1,8.155798E0,1.2185181E1,7.9631653E0,9.044067E0,8.243553E0,4.7346306E0,4.8684983E0,4.081524E0,1.7026749E0,1.6144247E0,1.2606431E0,5.5919304E0,3.229576E0,5.2491455E0,2.909027E0,1.172971E0,1.192729E0,2.2001696E-1,7.042335E-1,3.8937073E0,1.2167664E0,5.7856286E-1,5.022356E0,6.727127E0,3.588479E0,1.073822E0,1.4941864E0,2.5476642E0,3.1929245E0,1.7667236E0,7.983368E0,1.1888847E0,2.7607956E0,6.083023E0,7.516617E0,3.1616592E0,5.326889E0,1.0617104E0,1.9501925E0,6.100059E0,1.9962912E0,6.4703007E0,5.8133163E0,5.6509786E0,3.345423E0,4.6482697E0,1.4742279E0,6.5143585E0,3.1897888E0,6.788702E0,4.701782E0,2.690754E0,2.8449898E0,6.053295E-1,4.3110924E0,2.979749E0,1.7074451E0,8.677597E-1,1.9953194E0,9.1672516E-1,2.12261E0,5.4330844E-1,4.2078924E-1,7.528136E-1,2.9134676E-1,3.379055E0,7.146929E-1,1.934288E0,1.0223217E0,1.854454E0,1.9937451E0,5.689697E-1,1.6053925E0,4.60176E-1,3.2754958E-1,1.8201995E-1,1.2067354E0,0E0,2.4182582E-1,2.8730416E-1,5.454719E-1,3.230896E-1,1.445446E0,8.2536125E-1,7.091675E-1,0E0,0E0,0E0,0E0,0E0,0E0,0E0,0E0,0E0,0E0,0E0,0E0,0E0,0E0,0E0,0E0,0E0,0E0,0E0,0E0,0E0,0E0,0E0,0E0,0E0,0E0,0E0,0E0,0E0,0E0,0E0,0E0,0E0,0E0,0E0,0E0,0E0,0E0,0E0,0E0,0E0,0E0,0E0,0E0,0E0,0E0,0E0,0E0,0E0,0E0,0E0,0E0,0E0,0E0,0E0,0E0,0E0,0E0,0E0,0E0,0E0,0E0,0E0,0E0,0E0,0E0,0E0,0E0,0E0,0E0,0E0,0E0,0E0,0E0,0E0,0E0,0E0,0E0,0E0,0E0,0E0,0E0,0E0,0E0,0E0,0E0,0E0,0E0,0E0,0E0,0E0,0E0,0E0,0E0,0E0,0E0,0E0,0E0,0E0,0E0,0E0,0E0,0E0,0E0,0E0,0E0,0E0,0E0,0E0,0E0,0E0,0E0,0E0,0E0,0E0,0E0,0E0,0E0,0E0,0E0,0E0,0E0,0E0,0E0,0E0,0E0],"parents":[2147483647,0,0,1,1,2,2,3,3,4,4,5,5,6,6,7,7,8,8,9,9,10,10,11,11,12,12,13,13,14,14,15,15,16,16,17,17,18,18,19,19,20,20,21,21,22,22,23,23,24,24,25,25,26,26,27,27,28,28,29,29,30,30,31,31,32,32,33,33,34,34,35,35,36,36,37,37,38,38,39,39,40,40,41,41,42,42,43,43,44,44,45,45,46,46,47,47,48,48,49,49,50,50,51,51,52,52,53,53,54,54,55,55,56,56,57,57,58,58,59,59,60,60,61,61,62,62,63,63,64,64,65,65,66,66,67,67,68,68,69,69,70,70,71,71,72,72,73,73,74,74,75,75,76,76,77,77,78,78,79,79,80,80,81,81,82,82,83,83,84,84,85,85,86,86,87,87,88,88,89,89,90,90,91,91,92,92,93,93,94,94,95,95,96,96,97,97,98,98,99,99,100,100,101,101,102,102,103,103,104,104,105,105,106,106,107,107,108,108,109,109,110,110,111,111,112,112,113,113,114,114,115,115,116,116,117,117,118,118,120,120,121,121,122,122,123,123,124,124,125,125,126,126],"right_children":[2,4,6,8,10,12,14,16,18,20,22,24,26,28,30,32,34,36,38,40,42,44,46,48,50,52,54,56,58,60,62,64,66,68,70,72,74,76,78,80,82,84,86,88,90,92,94,96,98,100,102,104,106,108,110,112,114,116,118,120,122,124,126,128,130,132,134,136,138,140,142,144,146,148,150,152,154,156,158,160,162,164,166,168,170,172,174,176,178,180,182,184,186,188,190,192,194,196,198,200,202,204,206,208,210,212,214,216,218,220,222,224,226,228,230,232,234,236,238,-1,240,242,244,246,248,250,252,-1,-1,-1,-1,-1,-1,-1,-1,-1,-1,-1,-1,-1,-1,-1,-1,-1,-1,-1,-1,-1,-1,-1,-1,-1,-1,-1,-1,-1,-1,-1,-1,-1,-1,-1,-1,-1,-1,-1,-1,-1,-1,-1,-1,-1,-1,-1,-1,-1,-1,-1,-1,-1,-1,-1,-1,-1,-1,-1,-1,-1,-1,-1,-1,-1,-1,-1,-1,-1,-1,-1,-1,-1,-1,-1,-1,-1,-1,-1,-1,-1,-1,-1,-1,-1,-1,-1,-1,-1,-1,-1,-1,-1,-1,-1,-1,-1,-1,-1,-1,-1,-1,-1,-1,-1,-1,-1,-1,-1,-1,-1,-1,-1,-1,-1,-1,-1,-1,-1,-1,-1,-1,-1,-1,-1,-1],"split_conditions":[-2.99334E-2,-7.8178954E-1,6.8858135E-1,-8.871719E-1,-3.3563294E-3,9.3450016E-1,1.3178846E0,-1.1445829E0,-1.1333319E0,-5.5784E-1,-3.584968E-1,2.7647328E-1,-1.0672015E0,2.050867E0,-1.6918156E0,-1.724934E0,-1.4558692E0,-3.4248945E-1,-2.5080636E-1,-9.1499346E-1,-4.380431E-1,2.7581108E-1,6.505142E-1,1.6246474E-1,4.5917544E-1,-1.332099E0,-1.8760328E-1,9.268082E-1,5.935773E-1,-2.2910419E0,1.887932E0,-1.4658058E0,-1.4658058E0,2.0893705E0,1.1536297E0,-1.3657768E0,-1.8440427E-1,-6.5362436E-1,-1.2493257E-2,-1.0431337E0,-4.3019834E-1,2.4027085E-1,-2.2226204E-1,-5.4189336E-1,6.3156986E-1,4.2108607E-1,-1.8465024E0,-6.0528666E-1,6.6960204E-1,-7.306837E-2,6.950882E-1,5.0044143E-1,1.236431E0,5.0044143E-1,4.7282758E-1,1.4832617E0,-1.0672015E0,1.0236186E0,2.3561392E0,1.3528621E0,1.6910429E0,-2.4997644E-1,-7.1290773E-1,-9.3228024E-1,2.4106958E0,-7.1290773E-1,-1.3402736E0,-1.0306581E0,-1.2901473E0,-1.0688924E0,-1.0431337E0,-4.3751383E-1,-7.477809E-1,-1.272763E0,-1.4035563E0,9.4361323E-1,8.075359E-1,8.075359E-1,-1.9165432E0,-1.4096136E0,-4.380431E-1,3.760687E-1,7.514839E-1,-2.1399143E-1,-2.5882143E-1,2.3840563E-1,5.145802E-1,1.5219311E-1,-1.650049E0,-6.072582E-1,-1.4831029E0,-4.7128105E-1,-3.6837566E-1,1.0440042E0,-4.4795433E-1,-8.10323E-1,8.4261316E-1,1.386548E-1,1.586519E-1,6.01329E-1,6.1575824E-1,3.135019E-1,-2.5882143E-1,-1.3106152E0,-1.761817E0,-1.2704433E0,2.3840563E-1,-1.6918156E0,-1.6918156E0,-1.78927E0,-2.2910419E0,1.7183758E0,-1.78927E0,1.075858E0,5.956907E-1,-9.87466E-1,-4.5930862E-2,-2.2910419E0,8.7311363E-1,-5.4917706E-5,7.4953985E-1,1.273533E0,1.887932E0,1.4712973E0,3.0114048E0,2.4106958E0,8.8454545E-1,-5.935131E-4,4.7765186E-4,9.820464E-4,2.8194308E-3,-6.083084E-4,1.1712807E-3,7.13657E-5,-5.074491E-4,1.9803348E-3,2.641513E-3,3.5757348E-3,5.119259E-3,-1.17416006E-4,4.762369E-4,7.948623E-4,1.4632166E-3,3.5583926E-3,5.104894E-3,1.8224106E-3,2.8185013E-3,5.229336E-3,3.909266E-3,7.156398E-3,4.0468713E-3,8.060697E-4,1.5556366E-3,1.5179344E-3,2.1933254E-3,2.5438305E-3,3.5361692E-3,6.699589E-3,4.333896E-3,-1.3858273E-4,-8.3398266E-4,-2.0991951E-4,-7.4452686E-4,1.0653642E-4,7.0441025E-4,-5.199599E-4,-1.4705588E-4,4.8924447E-4,1.2254165E-3,1.1337989E-3,1.8055803E-3,1.02959086E-4,6.653177E-4,-3.315565E-4,1.454297E-4,2.5021066E-3,3.933184E-3,2.6514714E-3,1.4656447E-3,5.4345466E-3,3.3074198E-3,7.724775E-3,4.577412E-3,2.2267089E-4,9.2925463E-4,1.202561E-3,2.629971E-3,5.2182684E-3,9.467945E-3,2.464553E-3,3.966361E-3,-1.2631402E-3,-9.1960235E-4,-6.6386745E-4,-2.1973347E-4,1.7803397E-4,-2.925573E-4,1.0669273E-3,2.6790868E-4,-1.2822861E-3,-9.35057E-4,-6.339452E-4,1.5664708E-3,-1.3514258E-3,-1.0708189E-3,-1.3233281E-3,-7.5519667E-4,1.2137834E-3,-1.4422137E-4,-1.1912965E-3,-6.700532E-4,9.116596E-5,1.0602542E-3,-8.7288325E-5,-1.5871858E-3,4.3129446E-3,2.052549E-3,2.3264482E-3,3.3316374E-4,9.649351E-3,5.614276E-3,9.114482E-3,3.1590804E-3,-1.3084651E-3,-8.149738E-4,4.022109E-3,-1.9943096E-4,-1.525865E-3,-1.7356094E-3,-1.4254312E-3,-9.6025225E-4,4.4088106E-4,2.3577851E-3,-5.2413705E-4,6.2962744E-4,-1.248093E-4,7.7924663E-3,6.6526956E-4,3.6947436E-3,-1.613511E-5,9.812654E-3,5.1458552E-3,-1.576873E-4,5.3867325E-3,1.4679241E-3,-1.803078E-3,-1.9581835E-3,-1.3627082E-3,4.1857737E-4,-1.8148206E-3,-7.7632064E-4,-1.6078673E-3,-2.1364787E-3],"split_indices":[3,3,3,2,2,2,3,2,3,2,3,3,4,2,0,3,3,2,2,2,3,2,2,2,3,4,4,3,4,0,3,2,2,4,4,3,2,2,2,2,3,4,3,3,2,2,0,2,2,2,0,3,2,3,3,2,4,3,2,3,4,4,0,0,4,0,3,0,0,2,2,2,2,3,0,4,4,4,0,2,3,0,0,2,2,0,0,2,0,3,0,4,4,2,4,2,0,3,3,0,4,2,2,0,4,4,0,0,0,0,0,0,0,3,2,0,0,0,4,0,2,2,3,3,2,4,2,0,0,0,0,0,0,0,0,0,0,0,0,0,0,0,0,0,0,0,0,0,0,0,0,0,0,0,0,0,0,0,0,0,0,0,0,0,0,0,0,0,0,0,0,0,0,0,0,0,0,0,0,0,0,0,0,0,0,0,0,0,0,0,0,0,0,0,0,0,0,0,0,0,0,0,0,0,0,0,0,0,0,0,0,0,0,0,0,0,0,0,0,0,0,0,0,0,0,0,0,0,0,0,0,0,0,0,0,0,0,0,0,0,0,0,0,0,0,0,0,0,0,0,0,0,0],"split_type":[0,0,0,0,0,0,0,0,0,0,0,0,0,0,0,0,0,0,0,0,0,0,0,0,0,0,0,0,0,0,0,0,0,0,0,0,0,0,0,0,0,0,0,0,0,0,0,0,0,0,0,0,0,0,0,0,0,0,0,0,0,0,0,0,0,0,0,0,0,0,0,0,0,0,0,0,0,0,0,0,0,0,0,0,0,0,0,0,0,0,0,0,0,0,0,0,0,0,0,0,0,0,0,0,0,0,0,0,0,0,0,0,0,0,0,0,0,0,0,0,0,0,0,0,0,0,0,0,0,0,0,0,0,0,0,0,0,0,0,0,0,0,0,0,0,0,0,0,0,0,0,0,0,0,0,0,0,0,0,0,0,0,0,0,0,0,0,0,0,0,0,0,0,0,0,0,0,0,0,0,0,0,0,0,0,0,0,0,0,0,0,0,0,0,0,0,0,0,0,0,0,0,0,0,0,0,0,0,0,0,0,0,0,0,0,0,0,0,0,0,0,0,0,0,0,0,0,0,0,0,0,0,0,0,0,0,0,0,0,0,0,0,0,0,0,0,0,0,0,0,0,0,0],"sum_hessian":[9.56387E5,5.37715E5,4.18672E5,1.97803E5,3.39912E5,2.28076E5,1.90596E5,8.6852E4,1.10951E5,2.77282E5,6.263E4,2.12779E5,1.5297E4,9.7395E4,9.3201E4,3.7402E4,4.945E4,3.261E4,7.8341E4,1.22087E5,1.55195E5,2.0992E4,4.1638E4,1.12683E5,1.00096E5,9.929E3,5.368E3,9.5661E4,1.734E3,2.4E2,9.2961E4,4.629E3,3.2773E4,8.287E3,4.1163E4,2.9806E4,2.804E3,6.7132E4,1.1209E4,3.4847E4,8.724E4,6.6097E4,8.9098E4,1.4992E4,6E3,3.7962E4,3.676E3,7.6074E4,3.6609E4,5.2082E4,4.8014E4,6.62E3,3.309E3,4.724E3,6.44E2,4.4635E4,5.1026E4,1.379E3,3.55E2,1.6E1,2.24E2,4.4608E4,4.8353E4,1.204E3,3.425E3,5.363E3,2.741E4,6.207E3,2.08E3,2.3844E4,1.7319E4,9.914E3,1.9892E4,1.822E3,9.82E2,2.9275E4,3.7857E4,8.076E3,3.133E3,1.8119E4,1.6728E4,5.0436E4,3.6804E4,3.1476E4,3.4621E4,4.9092E4,4.0006E4,6.202E3,8.79E3,5.212E3,7.88E2,3.1473E4,6.489E3,4.83E2,3.193E3,1.2544E4,6.353E4,3.0517E4,6.092E3,1.7783E4,3.4299E4,2.7901E4,2.0113E4,2.226E3,4.394E3,2.309E3,1E3,3.423E3,1.301E3,3.45E2,2.99E2,4.236E4,2.275E3,3.1522E4,1.9504E4,2.92E2,1.087E3,3E1,3.25E2,1E0,1.5E1,1.24E2,1E2,3.7511E4,7.097E3,2.364E3,4.5989E4,7.51E2,4.53E2,1.914E3,1.511E3,1.806E3,3.557E3,9.003E3,1.8407E4,3.917E3,2.29E3,1.579E3,5.01E2,5.222E3,1.8622E4,6.497E3,1.0822E4,9.454E3,4.6E2,7.131E3,1.2761E4,6.96E2,1.126E3,7.53E2,2.29E2,2.0538E4,8.737E3,2.1015E4,1.6842E4,5.198E3,2.878E3,7.17E2,2.416E3,1.35E3,1.6769E4,1.0678E4,6.05E3,3.7448E4,1.2988E4,2.4692E4,1.2112E4,2.1666E4,9.81E3,2.4155E4,1.0466E4,3.4879E4,1.4213E4,2.8249E4,1.1757E4,4.347E3,1.855E3,6.48E2,8.142E3,1.027E3,4.185E3,4.27E2,3.61E2,1.3361E4,1.8112E4,4.669E3,1.82E3,3.62E2,1.21E2,2.065E3,1.128E3,4.819E3,7.725E3,4.6717E4,1.6813E4,1.6216E4,1.4301E4,3.238E3,2.854E3,6.543E3,1.124E4,3.4068E4,2.31E2,1.1192E4,1.6709E4,4.955E3,1.5158E4,1.78E2,2.048E3,1.252E3,3.142E3,6.28E2,1.681E3,9.23E2,7.7E1,4.31E2,2.992E3,1.09E2,1.192E3,1.15E2,2.3E2,1.6E1,2.83E2,3.7446E4,4.914E3,6.2E1,2.213E3,1.3208E4,1.8314E4,1.3271E4,6.233E3,1.59E2,1.33E2,9.28E2,1.59E2,1E0,2.9E1,1.22E2,2.03E2,1E0,1.4E1,3E0,1.21E2,2.9E1,7.1E1,1.2783E4,2.4728E4,6.833E3,2.64E2,1.771E3,5.93E2,1.57E3,4.4419E4],"tree_param":{"num_deleted":"0","num_feature":"5","num_nodes":"253","size_leaf_vector":"1"}},{"base_weights":[-7.47046E-5,5.570067E-2,-2.7338637E-2,1.0179217E-1,3.673468E-2,-5.448783E-3,-6.1769035E-2,1.3722716E-1,7.304375E-2,7.761609E-2,2.1866169E-2,3.214138E-2,-1.2455197E-2,-4.719586E-2,-7.868014E-2,6.13929E-2,1.4818089E-1,1.7911707E-1,6.506243E-2,9.475063E-2,5.5892505E-2,3.0379377E-2,-2.1675209E-2,1.0649691E-1,2.415025E-2,9.883142E-4,-2.4995554E-2,3.710938E-2,-4.8210274E-2,-7.254638E-2,-8.785891E-2,2.4821591E-1,4.203109E-2,1.8687083E-1,1.2988336E-1,1.4399177E-1,2.7016133E-1,1.884494E-2,7.316238E-2,4.1074045E-2,9.901142E-2,9.70638E-2,4.7574215E-2,4.2193156E-2,2.0314764E-2,-1.3415246E-2,-5.7345703E-2,7.7153355E-2,1.9639388E-1,4.298743E-2,2.4640374E-3,1.0017356E-2,-7.588677E-3,-1.9417126E-2,-3.673598E-2,-4.129356E-2,5.9756123E-2,-4.0286228E-2,-5.4185636E-2,-3.2041855E-2,-7.3399976E-2,2.0620914E-1,-8.7944634E-2,6.836328E-2,2.6151586E-1,4.476755E-3,7.9551704E-2,1.6094881E-1,2.5508544E-1,1.4987844E-1,1.0728665E-1,1.9189899E-1,1.2643655E-1,3.200196E-1,2.0401356E-1,-1.9574359E-2,3.5002816E-2,9.278142E-2,5.876534E-2,1.3194148E-1,2.72955E-2,1.0741777E-1,8.019445E-2,8.7539785E-2,1.3369898E-1,5.2643944E-2,-7.984198E-3,-1.5199333E-3,4.6870504E-2,3.0805076E-2,1.1437727E-2,1.1493753E-2,-1.8113673E-2,-3.0629267E-3,-6.1411407E-2,-7.534207E-2,8.789182E-2,2.6550725E-1,1.385759E-1,-3.690921E-2,4.7055736E-2,-5.9171602E-2,6.0793734E-3,-2.2722105E-2,1.2469993E-2,-3.6471542E-3,-1.6301297E-2,-9.909142E-3,-2.403182E-2,-2.9674646E-2,-4.298864E-2,-1.0547092E-2,-5.1577736E-2,2.8258938E-1,4.9185712E-2,-3.4614254E-2,-5.1388063E-2,-3.6015812E-2,-5.558064E-2,-4.2175304E-2,1.6170194E-2,-6.430774E-2,-7.585998E-2,6.8803555E-3,-7.822323E-4,-3.308803E-2,-8.8124804E-2,-1.2342385E-3,2.3528435E-3,2.3522703E-3,6.4399107E-3,1.015263E-3,-1.2467227E-4,3.8739967E-3,1.6738916E-3,5.0597675E-3,3.569183E-3,6.948501E-3,5.047098E-3,3.3453144E-3,4.173939E-3,3.025279E-3,2.2327162E-3,3.3663027E-3,5.6382804E-3,-1.0374693E-3,3.1096227E-3,6.4625917E-3,8.292486E-3,4.3613873E-3,5.9136744E-3,-4.94467E-4,1.0755837E-3,1.1007785E-3,5.831659E-4,1.9106942E-3,2.6322403E-3,1.6214012E-3,9.7285357E-4,2.4146484E-3,4.2568767E-3,1.7414612E-3,2.5999878E-4,2.731416E-3,2.250378E-3,1.9672778E-3,-1.9507595E-5,8.947902E-4,2.1944952E-3,8.6982857E-4,3.4869763E-3,4.2229816E-3,1.2207201E-3,9.04627E-5,-1.3544961E-3,-2.1522667E-4,2.7473512E-4,1.3964776E-3,7.405199E-4,9.3416474E-4,4.539091E-4,3.864711E-4,2.581353E-5,7.256277E-4,-5.6793517E-5,-1.6419678E-4,-5.9061433E-4,1.3035055E-3,-5.8035133E-4,-9.020091E-4,-1.6005568E-3,-1.4767449E-3,-2.0786333E-3,2.7486647E-3,1.3388927E-3,5.944473E-3,1.1129233E-2,5.1510246E-3,2.2507987E-3,-9.0919307E-4,5.863027E-4,1.8051073E-3,9.2496705E-4,-1.0637195E-3,-1.6713019E-3,3.230424E-4,-3.3386805E-4,3.1516797E-4,-7.07983E-4,5.840135E-4,1.6440885E-4,-3.7133036E-4,-1.2258834E-5,-3.3836428E-4,-6.063244E-4,-1.6390743E-4,-4.3329332E-4,6.468047E-4,-5.832796E-4,1.014316E-3,-7.2596746E-4,-7.945315E-4,-1.0949392E-3,-6.2581315E-4,1.7355632E-3,-7.663743E-4,-1.633225E-3,8.1694005E-3,1.4863646E-3,2.2761852E-3,6.642007E-4,-8.574754E-4,-6.976509E-6,-8.7058154E-4,-1.287038E-3,-9.454754E-4,2.8024745E-4,-1.247541E-3,-1.4997426E-3,2.3525157E-4,-1.1263721E-3,1.9624433E-3,-5.252721E-4,-1.5640882E-3,-9.3465485E-4,-1.6538737E-3,-1.8821602E-3,-3.5084493E-4,-1.6314909E-3,-1.8219493E-3,-2.1161898E-3],"categories":[],"categories_nodes":[],"categories_segments":[],"categories_sizes":[],"default_left":[0,0,0,0,0,0,0,0,0,0,0,0,0,0,0,0,0,0,0,0,0,0,0,0,0,0,0,0,0,0,0,0,0,0,0,0,0,0,0,0,0,0,0,0,0,0,0,0,0,0,0,0,0,0,0,0,0,0,0,0,0,0,0,0,0,0,0,0,0,0,0,0,0,0,0,0,0,0,0,0,0,0,0,0,0,0,0,0,0,0,0,0,0,0,0,0,0,0,0,0,0,0,0,0,0,0,0,0,0,0,0,0,0,0,0,0,0,0,0,0,0,0,0,0,0,0,0,0,0,0,0,0,0,0,0,0,0,0,0,0,0,0,0,0,0,0,0,0,0,0,0,0,0,0,0,0,0,0,0,0,0,0,0,0,0,0,0,0,0,0,0,0,0,0,0,0,0,0,0,0,0,0,0,0,0,0,0,0,0,0,0,0,0,0,0,0,0,0,0,0,0,0,0,0,0,0,0,0,0,0,0,0,0,0,0,0,0,0,0,0,0,0,0,0,0,0,0,0,0,0,0,0,0,0,0,0,0,0,0,0,0,0,0,0,0,0,0,0,0,0,0],"id":4,"left_children":[1,3,5,7,9,11,13,15,17,19,21,23,25,27,29,31,33,35,37,39,41,43,45,47,49,51,53,55,57,59,61,63,65,67,69,71,73,75,77,79,81,83,85,87,89,91,93,95,97,99,101,103,105,107,109,111,113,115,117,119,121,123,125,127,129,131,133,135,137,139,141,143,145,147,149,151,153,155,157,159,161,163,165,167,169,171,173,175,177,179,181,183,185,187,189,191,193,195,197,199,201,203,205,207,209,211,213,215,217,219,221,223,225,227,229,231,233,235,237,239,241,243,245,-1,-1,247,249,-1,-1,-1,-1,-1,-1,-1,-1,-1,-1,-1,-1,-1,-1,-1,-1,-1,-1,-1,-1,-1,-1,-1,-1,-1,-1,-1,-1,-1,-1,-1,-1,-1,-1,-1,-1,-1,-1,-1,-1,-1,-1,-1,-1,-1,-1,-1,-1,-1,-1,-1,-1,-1,-1,-1,-1,-1,-1,-1,-1,-1,-1,-1,-1,-1,-1,-1,-1,-1,-1,-1,-1,-1,-1,-1,-1,-1,-1,-1,-1,-1,-1,-1,-1,-1,-1,-1,-1,-1,-1,-1,-1,-1,-1,-1,-1,-1,-1,-1,-1,-1,-1,-1,-1,-1,-1,-1,-1,-1,-1,-1,-1,-1,-1,-1,-1,-1,-1,-1,-1,-1,-1,-1,-1],"loss_changes":[1.4533552E3,2.7428424E2,4.838147E2,9.3134705E1,1.3512161E2,1.0335967E2,6.1465576E1,3.3981873E1,4.2702667E1,2.203778E1,6.0435837E1,3.6613377E1,5.577058E1,1.1468567E1,6.4659424E0,1.8665335E1,2.5233765E1,1.1135025E1,1.757463E1,7.5524597E0,8.928368E0,1.6206062E1,7.846381E0,1.5703506E1,2.2739521E1,1.2364021E1,1.1201401E1,2.8397017E0,6.2543945E0,2.3762817E0,1.2086792E0,1.0723686E0,6.6059713E0,2.013971E1,1.0910187E1,2.0436058E0,2.9772568E0,4.3565426E0,1.1258682E1,3.0328546E0,4.8106384E0,1.4740448E0,6.136574E0,1.2830284E1,6.8530407E0,2.5357783E0,1.0985756E0,7.415064E0,5.717411E0,9.690369E0,5.764194E0,6.245562E0,2.809289E0,5.0870705E0,2.4223633E0,1.0524249E-1,2.8425179E0,3.5721436E0,1.8979034E0,7.067871E-1,1.4876404E0,3.3451116E-1,4.3566895E-1,1.6052936E-1,5.703125E-1,8.784695E-1,1.7288561E0,4.532089E0,4.785431E0,2.9217834E0,2.9915314E0,1.4040222E0,1.4311466E0,4.1547775E-1,2.1259499E-1,1.6575068E-1,5.74038E-1,3.7183228E0,3.8681488E0,3.742361E-1,1.588414E0,1.9713745E0,1.9875946E0,8.1121063E-1,1.0991116E0,3.1560097E0,1.0581553E0,5.9766185E-1,1.0566765E1,3.3494186E0,1.989871E0,9.1083765E-1,1.3715334E0,4.387262E-1,6.294308E-1,1.5971541E-2,3.658802E0,1.6489944E0,2.6730947E0,1.2360299E-1,6.6469E0,2.08992E-1,3.6979053E0,1.3802888E0,4.858881E0,2.1126168E0,4.7972584E-1,9.4796443E-1,2.0346718E0,1.6298046E0,8.4701157E-1,1.2775108E-1,7.081276E-2,6.3356113E-1,1.1537263E0,1.8876572E0,7.688713E-1,9.747782E-1,1.6083374E0,3.283012E-1,6.469983E-1,5.2243805E-1,1.0821228E0,0E0,0E0,9.141439E-2,4.4198608E-1,0E0,0E0,0E0,0E0,0E0,0E0,0E0,0E0,0E0,0E0,0E0,0E0,0E0,0E0,0E0,0E0,0E0,0E0,0E0,0E0,0E0,0E0,0E0,0E0,0E0,0E0,0E0,0E0,0E0,0E0,0E0,0E0,0E0,0E0,0E0,0E0,0E0,0E0,0E0,0E0,0E0,0E0,0E0,0E0,0E0,0E0,0E0,0E0,0E0,0E0,0E0,0E0,0E0,0E0,0E0,0E0,0E0,0E0,0E0,0E0,0E0,0E0,0E0,0E0,0E0,0E0,0E0,0E0,0E0,0E0,0E0,0E0,0E0,0E0,0E0,0E0,0E0,0E0,0E0,0E0,0E0,0E0,0E0,0E0,0E0,0E0,0E0,0E0,0E0,0E0,0E0,0E0,0E0,0E0,0E0,0E0,0E0,0E0,0E0,0E0,0E0,0E0,0E0,0E0,0E0,0E0,0E0,0E0,0E0,0E0,0E0,0E0,0E0,0E0,0E0,0E0,0E0,0E0,0E0,0E0,0E0,0E0,0E0,0E0],"parents":[2147483647,0,0,1,1,2,2,3,3,4,4,5,5,6,6,7,7,8,8,9,9,10,10,11,11,12,12,13,13,14,14,15,15,16,16,17,17,18,18,19,19,20,20,21,21,22,22,23,23,24,24,25,25,26,26,27,27,28,28,29,29,30,30,31,31,32,32,33,33,34,34,35,35,36,36,37,37,38,38,39,39,40,40,41,41,42,42,43,43,44,44,45,45,46,46,47,47,48,48,49,49,50,50,51,51,52,52,53,53,54,54,55,55,56,56,57,57,58,58,59,59,60,60,61,61,62,62,63,63,64,64,65,65,66,66,67,67,68,68,69,69,70,70,71,71,72,72,73,73,74,74,75,75,76,76,77,77,78,78,79,79,80,80,81,81,82,82,83,83,84,84,85,85,86,86,87,87,88,88,89,89,90,90,91,91,92,92,93,93,94,94,95,95,96,96,97,97,98,98,99,99,100,100,101,101,102,102,103,103,104,104,105,105,106,106,107,107,108,108,109,109,110,110,111,111,112,112,113,113,114,114,115,115,116,116,117,117,118,118,119,119,120,120,121,121,122,122,125,125,126,126],"right_children":[2,4,6,8,10,12,14,16,18,20,22,24,26,28,30,32,34,36,38,40,42,44,46,48,50,52,54,56,58,60,62,64,66,68,70,72,74,76,78,80,82,84,86,88,90,92,94,96,98,100,102,104,106,108,110,112,114,116,118,120,122,124,126,128,130,132,134,136,138,140,142,144,146,148,150,152,154,156,158,160,162,164,166,168,170,172,174,176,178,180,182,184,186,188,190,192,194,196,198,200,202,204,206,208,210,212,214,216,218,220,222,224,226,228,230,232,234,236,238,240,242,244,246,-1,-1,248,250,-1,-1,-1,-1,-1,-1,-1,-1,-1,-1,-1,-1,-1,-1,-1,-1,-1,-1,-1,-1,-1,-1,-1,-1,-1,-1,-1,-1,-1,-1,-1,-1,-1,-1,-1,-1,-1,-1,-1,-1,-1,-1,-1,-1,-1,-1,-1,-1,-1,-1,-1,-1,-1,-1,-1,-1,-1,-1,-1,-1,-1,-1,-1,-1,-1,-1,-1,-1,-1,-1,-1,-1,-1,-1,-1,-1,-1,-1,-1,-1,-1,-1,-1,-1,-1,-1,-1,-1,-1,-1,-1,-1,-1,-1,-1,-1,-1,-1,-1,-1,-1,-1,-1,-1,-1,-1,-1,-1,-1,-1,-1,-1,-1,-1,-1,-1,-1,-1,-1,-1,-1,-1,-1,-1],"split_conditions":[-4.9563962E-1,-7.0163476E-1,3.5757512E-1,-1.0289049E0,-1.2392267E0,-1.1248302E0,1.075858E0,-1.0828663E0,-1.9165432E0,2.4872534E-1,2.2144362E-1,-2.0015776E0,9.258628E-2,-1.5120807E0,1.887932E0,-2.0167854E0,-1.3553897E0,-1.2493257E-2,-9.6432406E-1,-1.1445829E0,-1.8372077E0,2.0500155E-2,1.1870346E0,1.5219311E-1,2.0376918E-1,-1.1093527E-1,7.6554745E-1,7.9249585E-1,6.05009E-1,-1.1413436E0,-2.1130996E0,-1.9165432E0,-1.2213238E0,-8.93539E-2,-1.318717E0,-2.2910419E0,-2.1130996E0,-1.2446989E0,-1.1757143E0,-1.9147826E0,-1.3864174E0,1.3300802E0,8.147906E-1,-1.0828663E0,-8.5020304E-1,-1.01544574E-1,-1.1188589E0,-1.2973295E0,1.0261635E-1,-1.2213238E0,-1.2695962E0,-1.1278442E0,-2.10114E-2,-4.3299708E-1,-1.2353388E-2,1.7467859E0,-2.2910419E0,8.449588E-1,-7.701046E-1,2.6322935E0,6.6960204E-1,2.5245068E0,-1.5435543E0,-1.4658058E0,-1.4658058E0,-1.672164E0,-1.7735959E0,-1.7198106E0,-1.6115664E0,-6.4576335E-2,-1.0451242E0,-5.6464094E-1,-1.3291819E0,-7.820691E-1,7.089739E-1,-7.1290773E-1,-1.1248302E0,-1.9198228E-1,-6.6449845E-1,-1.2213238E0,-1.3659035E0,-1.2045348E-1,1.3112981E0,-1.0431337E0,-8.10323E-1,-1.4096136E0,1.2496734E0,-1.1803534E0,-7.7099776E-1,6.6758513E-1,8.114306E-1,-7.820691E-1,4.332617E-1,3.331405E-1,1.0793738E-1,7.3518384E-1,1.6303982E-1,1.273533E0,-2.2910419E0,-1.272763E0,-1.650049E0,7.6554745E-1,1.0075171E0,-1.4658058E0,-3.181315E-1,-9.541605E-1,2.7647328E-1,5.31833E-1,-1.4658058E0,-1.5460373E0,-5.023446E-1,5.146432E-1,3.7893346E-1,7.4238145E-1,5.0044143E-1,1.074176E0,-6.687545E-1,1.755902E0,1.0904424E0,1.104775E0,-1.5763099E0,3.3695464E0,4.3485102E-1,6.8803555E-3,-7.822323E-4,2.6640735E0,1.2005548E0,-1.2342385E-3,2.3528435E-3,2.3522703E-3,6.4399107E-3,1.015263E-3,-1.2467227E-4,3.8739967E-3,1.6738916E-3,5.0597675E-3,3.569183E-3,6.948501E-3,5.047098E-3,3.3453144E-3,4.173939E-3,3.025279E-3,2.2327162E-3,3.3663027E-3,5.6382804E-3,-1.0374693E-3,3.1096227E-3,6.4625917E-3,8.292486E-3,4.3613873E-3,5.9136744E-3,-4.94467E-4,1.0755837E-3,1.1007785E-3,5.831659E-4,1.9106942E-3,2.6322403E-3,1.6214012E-3,9.7285357E-4,2.4146484E-3,4.2568767E-3,1.7414612E-3,2.5999878E-4,2.731416E-3,2.250378E-3,1.9672778E-3,-1.9507595E-5,8.947902E-4,2.1944952E-3,8.6982857E-4,3.4869763E-3,4.2229816E-3,1.2207201E-3,9.04627E-5,-1.3544961E-3,-2.1522667E-4,2.7473512E-4,1.3964776E-3,7.405199E-4,9.3416474E-4,4.539091E-4,3.864711E-4,2.581353E-5,7.256277E-4,-5.6793517E-5,-1.6419678E-4,-5.9061433E-4,1.3035055E-3,-5.8035133E-4,-9.020091E-4,-1.6005568E-3,-1.4767449E-3,-2.0786333E-3,2.7486647E-3,1.3388927E-3,5.944473E-3,1.1129233E-2,5.1510246E-3,2.2507987E-3,-9.0919307E-4,5.863027E-4,1.8051073E-3,9.2496705E-4,-1.0637195E-3,-1.6713019E-3,3.230424E-4,-3.3386805E-4,3.1516797E-4,-7.07983E-4,5.840135E-4,1.6440885E-4,-3.7133036E-4,-1.2258834E-5,-3.3836428E-4,-6.063244E-4,-1.6390743E-4,-4.3329332E-4,6.468047E-4,-5.832796E-4,1.014316E-3,-7.2596746E-4,-7.945315E-4,-1.0949392E-3,-6.2581315E-4,1.7355632E-3,-7.663743E-4,-1.633225E-3,8.1694005E-3,1.4863646E-3,2.2761852E-3,6.642007E-4,-8.574754E-4,-6.976509E-6,-8.7058154E-4,-1.287038E-3,-9.454754E-4,2.8024745E-4,-1.247541E-3,-1.4997426E-3,2.3525157E-4,-1.1263721E-3,1.9624433E-3,-5.252721E-4,-1.5640882E-3,-9.3465485E-4,-1.6538737E-3,-1.8821602E-3,-3.5084493E-4,-1.6314909E-3,-1.8219493E-3,-2.1161898E-3],"split_indices":[1,0,3,1,1,0,3,2,0,0,3,0,1,0,3,1,0,2,2,2,1,0,3,2,1,0,1,2,3,0,0,0,2,2,1,0,0,2,0,1,1,0,2,2,1,0,1,2,1,2,2,2,3,0,3,1,0,1,0,2,2,3,0,2,2,1,1,1,0,2,0,2,2,1,2,0,0,2,1,2,2,0,2,2,2,2,3,2,1,0,0,1,3,0,0,1,1,2,0,3,0,1,1,2,1,2,3,1,2,2,0,3,2,3,3,2,0,2,1,2,0,1,1,0,0,3,2,0,0,0,0,0,0,0,0,0,0,0,0,0,0,0,0,0,0,0,0,0,0,0,0,0,0,0,0,0,0,0,0,0,0,0,0,0,0,0,0,0,0,0,0,0,0,0,0,0,0,0,0,0,0,0,0,0,0,0,0,0,0,0,0,0,0,0,0,0,0,0,0,0,0,0,0,0,0,0,0,0,0,0,0,0,0,0,0,0,0,0,0,0,0,0,0,0,0,0,0,0,0,0,0,0,0,0,0,0,0,0,0,0,0,0,0,0,0,0,0,0,0,0,0],"split_type":[0,0,0,0,0,0,0,0,0,0,0,0,0,0,0,0,0,0,0,0,0,0,0,0,0,0,0,0,0,0,0,0,0,0,0,0,0,0,0,0,0,0,0,0,0,0,0,0,0,0,0,0,0,0,0,0,0,0,0,0,0,0,0,0,0,0,0,0,0,0,0,0,0,0,0,0,0,0,0,0,0,0,0,0,0,0,0,0,0,0,0,0,0,0,0,0,0,0,0,0,0,0,0,0,0,0,0,0,0,0,0,0,0,0,0,0,0,0,0,0,0,0,0,0,0,0,0,0,0,0,0,0,0,0,0,0,0,0,0,0,0,0,0,0,0,0,0,0,0,0,0,0,0,0,0,0,0,0,0,0,0,0,0,0,0,0,0,0,0,0,0,0,0,0,0,0,0,0,0,0,0,0,0,0,0,0,0,0,0,0,0,0,0,0,0,0,0,0,0,0,0,0,0,0,0,0,0,0,0,0,0,0,0,0,0,0,0,0,0,0,0,0,0,0,0,0,0,0,0,0,0,0,0,0,0,0,0,0,0,0,0,0,0,0,0,0,0,0,0,0,0],"sum_hessian":[9.55738E5,3.13791E5,6.41947E5,9.1473E4,2.22318E5,3.92447E5,2.495E5,4.0965E4,5.0508E4,5.9287E4,1.63031E5,6.1652E4,3.30795E5,1.34023E5,1.15477E5,5.174E3,3.5791E4,3.529E3,4.6979E4,3.3136E4,2.6151E4,1.36371E5,2.666E4,5.978E3,5.5674E4,1.59646E5,1.71149E5,1.591E3,1.32432E5,6.9243E4,4.6234E4,4.82E2,4.692E3,1.1481E4,2.431E4,2.553E3,9.76E2,7.009E3,3.997E4,2.441E3,3.0695E4,4.388E3,2.1763E4,6.2725E4,7.3646E4,2.1653E4,5.007E3,4.512E3,1.466E3,2.979E4,2.5884E4,7.7779E4,8.1867E4,1.16033E5,5.5116E4,3.55E2,1.236E3,5.695E4,7.5482E4,1.434E3,6.7809E4,1.1E1,4.6223E4,3.5E1,4.47E2,2.348E3,2.344E3,8.328E3,3.153E3,1.2886E4,1.1424E4,6.75E2,1.878E3,5.49E2,4.27E2,2.073E3,4.936E3,1.6907E4,2.3063E4,3.17E2,2.124E3,2.1203E4,9.492E3,3.493E3,8.95E2,1.9945E4,1.818E3,6.061E3,5.6664E4,3.3747E4,3.9899E4,3.432E3,1.8221E4,3.51E2,4.656E3,2.95E2,4.217E3,6.62E2,8.04E2,1.441E3,2.8349E4,1.43E3,2.4454E4,5.416E3,7.2363E4,5.6378E4,2.5489E4,3.7925E4,7.8108E4,2.59E4,2.9216E4,9.3E1,2.62E2,5.2E1,1.184E3,3.7707E4,1.9243E4,5.393E3,7.0089E4,1.187E3,2.47E2,1.4466E4,5.3343E4,8E0,3E0,1.55E2,4.6068E4,6E0,2.9E1,2.7E1,4.2E2,4.76E2,1.872E3,2.25E2,2.119E3,1.421E3,6.907E3,1.674E3,1.479E3,9.527E3,3.359E3,4.561E3,6.863E3,3.27E2,3.48E2,4.6E1,1.832E3,2.19E2,3.3E2,3.05E2,1.22E2,2.038E3,3.5E1,2.363E3,2.573E3,1.0017E4,6.89E3,1.5066E4,7.997E3,2E2,1.17E2,5.53E2,1.571E3,1.3327E4,7.876E3,9.201E3,2.91E2,3.1E2,3.183E3,1.08E2,7.87E2,1.98E2,1.9747E4,1.466E3,3.52E2,3.851E3,2.21E3,3.2259E4,2.4405E4,1.9546E4,1.4201E4,2.7212E4,1.2687E4,1.449E3,1.983E3,6.848E3,1.1373E4,9.2E1,2.59E2,9.47E2,3.709E3,1.54E2,1.41E2,2.238E3,1.979E3,6.22E2,4E1,2.84E2,5.2E2,1.413E3,2.8E1,6.224E3,2.2125E4,6.34E2,7.96E2,1.7812E4,6.642E3,8.86E2,4.53E3,2.2753E4,4.961E4,1.1677E4,4.4701E4,2.0834E4,4.655E3,2.7855E4,1.007E4,7.63E2,7.7345E4,3.04E2,2.5596E4,7.131E3,2.2085E4,8.1E1,1.2E1,1.3E2,1.32E2,3.9E1,1.3E1,3.66E2,8.18E2,3.6164E4,1.543E3,3.044E3,1.6199E4,5.002E3,3.91E2,4.9677E4,2.0412E4,1.06E2,1.081E3,9E1,1.57E2,1.364E4,8.26E2,1.8507E4,3.4836E4,1.07E2,4.8E1,3.404E3,4.2664E4],"tree_param":{"num_deleted":"0","num_feature":"5","num_nodes":"251","size_leaf_vector":"1"}},{"base_weights":[-5.928832E-5,5.3397395E-2,-2.8087914E-2,1.036876E-1,3.6410432E-2,-6.8993336E-3,-6.056787E-2,1.4218658E-1,7.592079E-2,6.995745E-2,1.7813236E-2,3.983613E-2,-1.2153168E-2,-4.6680827E-2,-7.66383E-2,1.7033112E-1,1.2391896E-1,1.7699553E-1,6.67842E-2,8.575601E-2,4.8027445E-2,2.6571749E-2,-2.7506556E-2,1.1381049E-1,3.1637143E-2,1.1878313E-3,-2.442778E-2,9.491645E-3,-4.7713187E-2,-6.816774E-2,-8.344503E-2,1.3580516E-1,2.1239279E-1,1.5165462E-1,1.06567346E-1,1.3823195E-1,2.2572461E-1,7.403877E-2,2.8715074E-2,1.0829618E-1,7.229234E-2,8.468374E-2,3.8079478E-2,3.6915634E-2,1.672259E-2,-1.919575E-2,-6.0345415E-2,1.829759E-1,8.0787905E-2,4.803195E-2,4.038533E-3,1.6848022E-2,-5.54218E-3,-1.9647235E-2,-3.6399625E-2,2.0478046E-1,2.2617583E-3,-4.197085E-2,-5.4724123E-2,-7.167786E-2,-5.5675413E-2,2.2182578E-1,-8.349564E-2,1.9684175E-1,1.2298341E-1,3.0026296E-1,2.0162433E-1,1.7999029E-1,1.403872E-1,1.2039367E-1,3.655634E-2,1.6700849E-1,1.0145854E-1,3.1291717E-1,2.0078175E-1,9.593282E-2,5.9381176E-2,4.1741397E-2,2.3269795E-3,1.16961524E-1,9.2761084E-2,2.8857091E-2,7.652308E-2,1.2852462E-1,7.726218E-2,4.5807302E-2,3.4171846E-3,4.940545E-2,2.6359793E-2,2.7121967E-2,1.1927269E-2,-7.452857E-3,-2.5767747E-2,-3.6694027E-2,-6.511084E-2,2.6774308E-1,1.2931183E-1,1.2407964E-1,3.4218587E-2,7.99808E-2,3.8520828E-2,1.1074345E-2,-4.20249E-2,-1.3786063E-2,1.931481E-2,-1.4082115E-3,-1.6823592E-2,-9.878194E-3,-2.49924E-2,-2.83081E-2,-4.322465E-2,3.9118245E-1,6.799321E-2,1.7681716E-2,-4.5747843E-2,-3.3158135E-2,-4.7350395E-2,-4.6826053E-2,-5.7771567E-2,-6.873348E-2,-7.493325E-2,4.0522333E-2,-5.692686E-2,-9.2880666E-4,8.238822E-3,-7.8691445E-2,-8.6523525E-2,2.0766514E-3,4.938552E-3,1.6738562E-3,3.3182702E-3,5.4641785E-3,7.7419216E-3,5.638073E-3,4.100183E-3,4.7386647E-3,3.7328547E-3,3.4303842E-3,2.7772018E-3,3.3723486E-3,2.5609988E-3,-1.4878954E-4,1.2015222E-3,4.7709835E-3,3.5054474E-3,2.9233529E-3,1.8531833E-3,7.5574243E-3,4.239321E-4,5.529348E-3,3.4295733E-3,2.6949265E-3,1.9136566E-3,1.6687858E-3,9.923389E-4,1.2155637E-3,-2.3942594E-4,-4.1121704E-4,4.2266512E-4,2.9931313E-3,2.3543201E-3,2.335175E-3,1.7372584E-3,1.308904E-3,3.6100362E-4,2.2863096E-3,1.6037517E-3,2.6681682E-3,4.5011193E-3,1.8816157E-3,-8.771567E-6,1.3694691E-3,8.1235886E-4,2.4494558E-4,-1.2320671E-3,1.3056634E-3,3.662961E-4,-3.6209286E-4,6.836958E-4,7.260316E-4,2.1175462E-4,3.8021358E-4,-5.568938E-5,1.877081E-4,-3.8181734E-4,-1.3913882E-4,-7.08753E-4,-4.1281353E-5,-1.3287509E-3,-1.3462929E-3,-1.8249349E-3,5.699243E-3,9.132141E-3,4.589608E-3,1.7007239E-3,-5.129093E-5,3.0941116E-3,1.1418439E-3,-1.0218247E-3,2.8491043E-3,1.3430989E-3,-9.336217E-5,1.0131218E-3,3.9810786E-4,-2.2468535E-4,-5.6165084E-4,-1.5042712E-3,-1.40037E-4,-6.1431865E-4,7.5379905E-4,3.2098443E-4,1.0173161E-4,-1.9930657E-4,-3.4826444E-4,-5.667724E-4,-5.042511E-4,-1.7172589E-4,-4.957568E-4,-6.849699E-4,-4.7186628E-4,-7.283174E-4,-8.6142647E-4,-1.1281485E-3,1.0302694E-2,1.7283531E-3,5.3289845E-3,-6.819112E-5,2.1403474E-3,1.9969363E-4,-1.1540912E-3,8.7280263E-4,-3.6594959E-4,-8.2351826E-4,-1.0361989E-3,-1.2837118E-3,-4.618248E-5,-1.1354733E-3,-8.0866367E-4,-1.3888646E-3,-1.5146045E-3,-1.6963882E-3,-1.8164881E-3,-1.6240794E-3,8.6595646E-5,4.0964144E-3,-1.1713032E-3,-1.5505704E-3,-1.9213381E-3,-1.378505E-3,-1.5705188E-3,-2.0637973E-3],"categories":[],"categories_nodes":[],"categories_segments":[],"categories_sizes":[],"default_left":[0,0,0,0,0,0,0,0,0,0,0,0,0,0,0,0,0,0,0,0,0,0,0,0,0,0,0,0,0,0,0,0,0,0,0,0,0,0,0,0,0,0,0,0,0,0,0,0,0,0,0,0,0,0,0,0,0,0,0,0,0,0,0,0,0,0,0,0,0,0,0,0,0,0,0,0,0,0,0,0,0,0,0,0,0,0,0,0,0,0,0,0,0,0,0,0,0,0,0,0,0,0,0,0,0,0,0,0,0,0,0,0,0,0,0,0,0,0,0,0,0,0,0,0,0,0,0,0,0,0,0,0,0,0,0,0,0,0,0,0,0,0,0,0,0,0,0,0,0,0,0,0,0,0,0,0,0,0,0,0,0,0,0,0,0,0,0,0,0,0,0,0,0,0,0,0,0,0,0,0,0,0,0,0,0,0,0,0,0,0,0,0,0,0,0,0,0,0,0,0,0,0,0,0,0,0,0,0,0,0,0,0,0,0,0,0,0,0,0,0,0,0,0,0,0,0,0,0,0,0,0,0,0,0,0,0,0,0,0,0,0,0,0,0,0,0,0,0,0,0,0],"id":5,"left_children":[1,3,5,7,9,11,13,15,17,19,21,23,25,27,29,31,33,35,37,39,41,43,45,47,49,51,53,55,57,59,61,63,65,67,69,71,73,75,77,79,81,83,85,87,89,91,93,95,97,99,101,103,105,107,109,111,113,115,117,119,121,123,125,127,129,131,133,135,137,139,141,143,145,147,149,151,153,155,157,159,161,163,165,167,169,171,173,175,177,179,181,183,185,187,189,191,193,195,197,199,201,203,205,207,209,211,213,215,217,219,221,223,225,227,229,231,233,235,237,239,241,243,245,-1,-1,247,249,-1,-1,-1,-1,-1,-1,-1,-1,-1,-1,-1,-1,-1,-1,-1,-1,-1,-1,-1,-1,-1,-1,-1,-1,-1,-1,-1,-1,-1,-1,-1,-1,-1,-1,-1,-1,-1,-1,-1,-1,-1,-1,-1,-1,-1,-1,-1,-1,-1,-1,-1,-1,-1,-1,-1,-1,-1,-1,-1,-1,-1,-1,-1,-1,-1,-1,-1,-1,-1,-1,-1,-1,-1,-1,-1,-1,-1,-1,-1,-1,-1,-1,-1,-1,-1,-1,-1,-1,-1,-1,-1,-1,-1,-1,-1,-1,-1,-1,-1,-1,-1,-1,-1,-1,-1,-1,-1,-1,-1,-1,-1,-1,-1,-1,-1,-1,-1,-1,-1,-1,-1,-1,-1,-1],"loss_changes":[1.4317985E3,2.8077533E2,4.3143137E2,8.8661865E1,1.5328223E2,9.315817E1,5.5212036E1,1.778241E1,4.4473114E1,3.0334381E1,6.2751457E1,2.322808E1,5.585442E1,7.7052917E0,6.581909E0,1.9736084E1,1.0078217E1,7.414482E0,1.2198883E1,1.5413452E1,1.3362045E1,1.3490051E1,6.9759083E0,8.660175E0,1.5613529E1,1.7226278E1,1.0158691E1,3.3619556E0,5.232483E0,2.2173004E0,1.0245361E0,5.7790833E0,5.5919495E0,2.47995E0,1.2545929E1,2.2853127E0,3.5933914E0,1.1888229E1,2.4313211E0,2.5082855E0,5.8439026E0,2.4965477E0,7.7296486E0,8.506821E0,3.3799114E0,1.5734067E0,5.647621E-1,5.458927E0,5.200758E0,6.5582848E0,4.1693635E0,3.7140207E0,5.329012E0,6.625141E0,2.7879257E0,2.040754E0,1.71344E0,3.3862228E0,1.3937683E0,3.5224915E-1,1.3614616E0,4.318121E-1,8.8739014E-1,1.469574E0,5.3867416E0,9.0735245E-1,5.5288086E0,8.883133E-1,4.614334E-1,2.8757324E0,1.2925065E0,6.956978E-1,4.5122814E-1,5.225525E-1,2.3445053E0,3.9588165E0,4.2298126E0,2.3153114E0,7.132675E-1,1.8988953E0,6.981354E-1,1.0071216E0,5.136032E0,1.0204544E0,9.9777985E-1,3.2271729E0,2.003115E0,5.5486755E0,3.5060978E0,1.330287E0,2.6996713E0,9.7194153E-1,1.0524416E0,5.8277214E-1,3.9746857E-1,1.2005806E0,2.734767E0,1.0465641E0,1.3460397E0,4.607435E0,2.912115E0,1.30229E0,6.531203E-1,3.4475702E-1,3.2701015E0,3.3208597E0,4.622984E-1,1.3475704E0,1.2910652E0,4.5091438E-1,7.996216E-1,3.244667E-1,6.1154664E-1,1.1670108E0,1.3672519E-1,7.124691E-1,1.0957794E0,6.891899E-1,6.4868164E-1,2.5001526E-1,1.5541077E-1,6.852936E-1,6.836014E-1,0E0,0E0,1.0638275E0,2.0950317E-1,0E0,0E0,0E0,0E0,0E0,0E0,0E0,0E0,0E0,0E0,0E0,0E0,0E0,0E0,0E0,0E0,0E0,0E0,0E0,0E0,0E0,0E0,0E0,0E0,0E0,0E0,0E0,0E0,0E0,0E0,0E0,0E0,0E0,0E0,0E0,0E0,0E0,0E0,0E0,0E0,0E0,0E0,0E0,0E0,0E0,0E0,0E0,0E0,0E0,0E0,0E0,0E0,0E0,0E0,0E0,0E0,0E0,0E0,0E0,0E0,0E0,0E0,0E0,0E0,0E0,0E0,0E0,0E0,0E0,0E0,0E0,0E0,0E0,0E0,0E0,0E0,0E0,0E0,0E0,0E0,0E0,0E0,0E0,0E0,0E0,0E0,0E0,0E0,0E0,0E0,0E0,0E0,0E0,0E0,0E0,0E0,0E0,0E0,0E0,0E0,0E0,0E0,0E0,0E0,0E0,0E0,0E0,0E0,0E0,0E0,0E0,0E0,0E0,0E0,0E0,0E0,0E0,0E0,0E0,0E0,0E0,0E0,0E0,0E0],"parents":[2147483647,0,0,1,1,2,2,3,3,4,4,5,5,6,6,7,7,8,8,9,9,10,10,11,11,12,12,13,13,14,14,15,15,16,16,17,17,18,18,19,19,20,20,21,21,22,22,23,23,24,24,25,25,26,26,27,27,28,28,29,29,30,30,31,31,32,32,33,33,34,34,35,35,36,36,37,37,38,38,39,39,40,40,41,41,42,42,43,43,44,44,45,45,46,46,47,47,48,48,49,49,50,50,51,51,52,52,53,53,54,54,55,55,56,56,57,57,58,58,59,59,60,60,61,61,62,62,63,63,64,64,65,65,66,66,67,67,68,68,69,69,70,70,71,71,72,72,73,73,74,74,75,75,76,76,77,77,78,78,79,79,80,80,81,81,82,82,83,83,84,84,85,85,86,86,87,87,88,88,89,89,90,90,91,91,92,92,93,93,94,94,95,95,96,96,97,97,98,98,99,99,100,100,101,101,102,102,103,103,104,104,105,105,106,106,107,107,108,108,109,109,110,110,111,111,112,112,113,113,114,114,115,115,116,116,117,117,118,118,119,119,120,120,121,121,122,122,125,125,126,126],"right_children":[2,4,6,8,10,12,14,16,18,20,22,24,26,28,30,32,34,36,38,40,42,44,46,48,50,52,54,56,58,60,62,64,66,68,70,72,74,76,78,80,82,84,86,88,90,92,94,96,98,100,102,104,106,108,110,112,114,116,118,120,122,124,126,128,130,132,134,136,138,140,142,144,146,148,150,152,154,156,158,160,162,164,166,168,170,172,174,176,178,180,182,184,186,188,190,192,194,196,198,200,202,204,206,208,210,212,214,216,218,220,222,224,226,228,230,232,234,236,238,240,242,244,246,-1,-1,248,250,-1,-1,-1,-1,-1,-1,-1,-1,-1,-1,-1,-1,-1,-1,-1,-1,-1,-1,-1,-1,-1,-1,-1,-1,-1,-1,-1,-1,-1,-1,-1,-1,-1,-1,-1,-1,-1,-1,-1,-1,-1,-1,-1,-1,-1,-1,-1,-1,-1,-1,-1,-1,-1,-1,-1,-1,-1,-1,-1,-1,-1,-1,-1,-1,-1,-1,-1,-1,-1,-1,-1,-1,-1,-1,-1,-1,-1,-1,-1,-1,-1,-1,-1,-1,-1,-1,-1,-1,-1,-1,-1,-1,-1,-1,-1,-1,-1,-1,-1,-1,-1,-1,-1,-1,-1,-1,-1,-1,-1,-1,-1,-1,-1,-1,-1,-1,-1,-1,-1,-1,-1,-1,-1,-1],"split_conditions":[-4.576754E-1,-8.061706E-1,3.5757512E-1,-1.0431743E0,-1.0876272E0,-1.3333498E0,1.075858E0,-1.3333498E0,-1.9165432E0,2.4872534E-1,2.5435904E-1,-2.1130996E0,1.1263752E-1,-1.3789794E0,1.6062282E0,-1.3924638E0,-1.4629064E0,-1.1973429E0,1.5053644E0,-1.4911854E0,-1.672164E0,2.0500155E-2,1.1870346E0,4.7514772E-1,3.7675172E-1,-5.426642E-1,8.449588E-1,-2.2910419E0,6.8858135E-1,-6.938819E-1,-2.2910419E0,-1.8372077E0,-2.0015776E0,1.1009043E0,1.7370678E0,-2.1130996E0,-2.2910419E0,-1.2303672E0,-1.1757143E0,-1.4840275E-1,-1.3657768E0,-2.1762247E0,1.4877014E-1,-7.7099776E-1,-8.618494E-1,4.461973E-1,-5.431999E-2,1.0261635E-1,1.6303982E-1,-1.78927E0,1.3415141E0,-1.1803156E0,-2.10114E-2,-4.625027E-1,-2.10114E-2,6.350593E-1,1.5709175E0,3.32113E-1,2.453931E-1,1.3178846E0,-1.6918156E0,1.887932E0,2.0288324E0,-2.1130996E0,-1.8513186E0,-1.2524297E0,-1.318717E0,-1.629722E0,-8.795729E-1,-1.0923655E0,-1.724934E0,-8.3841753E-1,-2.0015776E0,3.2199854E-1,-6.3380724E-1,-7.2767854E-1,-6.542561E-1,2.0893705E0,-1.491772E0,-1.629722E0,1.272723E0,-1.3624308E0,-4.4273496E-1,1.3577731E0,2.2164702E0,7.2215635E-1,1.3178846E0,1.2105772E0,-1.2332519E0,1.0668542E0,7.325854E-1,3.1150138E-1,-7.440036E-2,-7.603215E-1,1.7104212E0,-1.1507371E-1,-2.2910419E0,-1.724934E0,1.7891675E0,4.5387694E-1,-1.3160565E0,1.158071E0,1.7370678E0,-2.0831916E-1,-2.8144342E-1,-1.7146702E-1,2.5435904E-1,-6.938819E-1,3.8800308E-1,-9.459849E-1,-3.369847E-1,7.240667E-1,-3.0309328E-1,-1.9165432E0,1.9127027E0,-6.7977625E-1,1.158071E0,-1.0306581E0,-1.0451242E0,4.3485102E-1,1.3577731E0,8.205472E-1,1.6982766E0,-9.2880666E-4,8.238822E-3,4.414066E-2,-1.0923655E0,2.0766514E-3,4.938552E-3,1.6738562E-3,3.3182702E-3,5.4641785E-3,7.7419216E-3,5.638073E-3,4.100183E-3,4.7386647E-3,3.7328547E-3,3.4303842E-3,2.7772018E-3,3.3723486E-3,2.5609988E-3,-1.4878954E-4,1.2015222E-3,4.7709835E-3,3.5054474E-3,2.9233529E-3,1.8531833E-3,7.5574243E-3,4.239321E-4,5.529348E-3,3.4295733E-3,2.6949265E-3,1.9136566E-3,1.6687858E-3,9.923389E-4,1.2155637E-3,-2.3942594E-4,-4.1121704E-4,4.2266512E-4,2.9931313E-3,2.3543201E-3,2.335175E-3,1.7372584E-3,1.308904E-3,3.6100362E-4,2.2863096E-3,1.6037517E-3,2.6681682E-3,4.5011193E-3,1.8816157E-3,-8.771567E-6,1.3694691E-3,8.1235886E-4,2.4494558E-4,-1.2320671E-3,1.3056634E-3,3.662961E-4,-3.6209286E-4,6.836958E-4,7.260316E-4,2.1175462E-4,3.8021358E-4,-5.568938E-5,1.877081E-4,-3.8181734E-4,-1.3913882E-4,-7.08753E-4,-4.1281353E-5,-1.3287509E-3,-1.3462929E-3,-1.8249349E-3,5.699243E-3,9.132141E-3,4.589608E-3,1.7007239E-3,-5.129093E-5,3.0941116E-3,1.1418439E-3,-1.0218247E-3,2.8491043E-3,1.3430989E-3,-9.336217E-5,1.0131218E-3,3.9810786E-4,-2.2468535E-4,-5.6165084E-4,-1.5042712E-3,-1.40037E-4,-6.1431865E-4,7.5379905E-4,3.2098443E-4,1.0173161E-4,-1.9930657E-4,-3.4826444E-4,-5.667724E-4,-5.042511E-4,-1.7172589E-4,-4.957568E-4,-6.849699E-4,-4.7186628E-4,-7.283174E-4,-8.6142647E-4,-1.1281485E-3,1.0302694E-2,1.7283531E-3,5.3289845E-3,-6.819112E-5,2.1403474E-3,1.9969363E-4,-1.1540912E-3,8.7280263E-4,-3.6594959E-4,-8.2351826E-4,-1.0361989E-3,-1.2837118E-3,-4.618248E-5,-1.1354733E-3,-8.0866367E-4,-1.3888646E-3,-1.5146045E-3,-1.6963882E-3,-1.8164881E-3,-1.6240794E-3,8.6595646E-5,4.0964144E-3,-1.1713032E-3,-1.5505704E-3,-1.9213381E-3,-1.378505E-3,-1.5705188E-3,-2.0637973E-3],"split_indices":[1,0,3,1,1,0,3,0,0,0,3,0,1,0,3,3,1,3,4,1,1,0,3,4,1,0,1,0,3,4,0,1,0,4,4,0,0,0,0,0,3,1,3,1,1,3,0,1,1,0,4,3,3,0,3,1,1,1,1,3,0,3,3,0,3,3,1,1,0,0,3,1,0,3,1,1,1,4,3,1,4,1,0,0,4,0,3,4,3,4,4,0,0,1,3,3,0,3,4,4,3,1,4,1,1,1,3,4,1,0,0,3,4,0,4,0,1,0,0,1,0,4,1,0,0,4,0,0,0,0,0,0,0,0,0,0,0,0,0,0,0,0,0,0,0,0,0,0,0,0,0,0,0,0,0,0,0,0,0,0,0,0,0,0,0,0,0,0,0,0,0,0,0,0,0,0,0,0,0,0,0,0,0,0,0,0,0,0,0,0,0,0,0,0,0,0,0,0,0,0,0,0,0,0,0,0,0,0,0,0,0,0,0,0,0,0,0,0,0,0,0,0,0,0,0,0,0,0,0,0,0,0,0,0,0,0,0,0,0,0,0,0,0,0,0,0,0,0,0,0,0],"split_type":[0,0,0,0,0,0,0,0,0,0,0,0,0,0,0,0,0,0,0,0,0,0,0,0,0,0,0,0,0,0,0,0,0,0,0,0,0,0,0,0,0,0,0,0,0,0,0,0,0,0,0,0,0,0,0,0,0,0,0,0,0,0,0,0,0,0,0,0,0,0,0,0,0,0,0,0,0,0,0,0,0,0,0,0,0,0,0,0,0,0,0,0,0,0,0,0,0,0,0,0,0,0,0,0,0,0,0,0,0,0,0,0,0,0,0,0,0,0,0,0,0,0,0,0,0,0,0,0,0,0,0,0,0,0,0,0,0,0,0,0,0,0,0,0,0,0,0,0,0,0,0,0,0,0,0,0,0,0,0,0,0,0,0,0,0,0,0,0,0,0,0,0,0,0,0,0,0,0,0,0,0,0,0,0,0,0,0,0,0,0,0,0,0,0,0,0,0,0,0,0,0,0,0,0,0,0,0,0,0,0,0,0,0,0,0,0,0,0,0,0,0,0,0,0,0,0,0,0,0,0,0,0,0,0,0,0,0,0,0,0,0,0,0,0,0,0,0,0,0,0,0],"sum_hessian":[9.556E5,3.28697E5,6.26903E5,8.2988E4,2.45709E5,3.79403E5,2.475E5,3.4767E4,4.8221E4,8.7627E4,1.58082E5,3.8337E4,3.41066E5,1.32779E5,1.14721E5,1.3672E4,2.1095E4,3.992E3,4.4229E4,5.0926E4,3.6701E4,1.32482E5,2.56E4,3.82E3,3.4517E4,1.63431E5,1.77635E5,2.394E3,1.30385E5,5.1135E4,6.3586E4,7.517E3,6.155E3,8.107E3,1.2988E4,2.231E3,1.761E3,3.7145E4,7.084E3,1.9033E4,3.1893E4,7.827E3,2.8874E4,6.4609E4,6.7873E4,2.0436E4,5.164E3,1.229E3,2.591E3,2.165E4,1.2867E4,4.9127E4,1.14304E5,1.26956E5,5.0679E4,8.2E1,2.312E3,7.1697E4,5.8688E4,3.9901E4,1.1234E4,8E0,6.3578E4,1.296E3,6.221E3,6.62E2,5.493E3,2.291E3,5.816E3,1.0843E4,2.145E3,1.244E3,9.87E2,3.83E2,1.378E3,1.4886E4,2.2259E4,4.739E3,2.345E3,1.2201E4,6.832E3,2.835E3,2.9058E4,1.124E3,6.703E3,2.3607E4,5.267E3,2.9584E4,3.5025E4,2.1409E4,4.6464E4,7.341E3,1.3095E4,8.74E2,4.29E3,4.71E2,7.58E2,1.339E3,1.252E3,4.959E3,1.6691E4,1.1166E4,1.701E3,3.657E3,4.547E4,8.366E4,3.0644E4,4.4908E4,8.2048E4,2.3202E4,2.7477E4,3.2E1,5E1,1.753E3,5.59E2,2.7192E4,4.4505E4,1.6363E4,4.2325E4,2.1003E4,1.8898E4,1.42E2,1.1092E4,3E0,5E0,2.4624E4,3.8954E4,1.21E2,1.175E3,1.5E3,4.721E3,1.85E2,4.77E2,2.461E3,3.032E3,1.227E3,1.064E3,4.966E3,8.5E2,4.003E3,6.84E3,5.27E2,1.618E3,4.44E2,8E2,5.06E2,4.81E2,3.76E2,7E0,8.74E2,5.04E2,6.972E3,7.914E3,1.3781E4,8.478E3,4.013E3,7.26E2,1.03E3,1.315E3,8.115E3,4.086E3,5.329E3,1.503E3,9.66E2,1.869E3,9.145E3,1.9913E4,8.95E2,2.29E2,6.544E3,1.59E2,1.1703E4,1.1904E4,4.687E3,5.8E2,2.5443E4,4.141E3,1.911E3,3.3114E4,1.8015E4,3.394E3,3.616E4,1.0304E4,2.634E3,4.707E3,2.219E3,1.0876E4,3.13E2,5.61E2,2.501E3,1.789E3,3.88E2,8.3E1,3.56E2,4.02E2,6.1E1,1.278E3,1.064E3,1.88E2,1.831E3,3.128E3,1.469E3,1.5222E4,8.752E3,2.414E3,9.18E2,7.83E2,2.218E3,1.439E3,1.4499E4,3.0971E4,4.6079E4,3.7581E4,2.3424E4,7.22E3,8.506E3,3.6402E4,3.9452E4,4.2596E4,5.034E3,1.8168E4,1.0399E4,1.7078E4,2.7E1,5E0,1.4E1,3.6E1,1.95E2,1.558E3,5.43E2,1.6E1,2.111E3,2.5081E4,2.8479E4,1.6026E4,3.4E2,1.6023E4,1.154E3,4.1171E4,7.281E3,1.3722E4,1.5381E4,3.517E3,1.14E2,2.8E1,5.793E3,5.299E3,2.2301E4,2.323E3,5.86E2,3.8368E4],"tree_param":{"num_deleted":"0","num_feature":"5","num_nodes":"251","size_leaf_vector":"1"}},{"base_weights":[-1.4644758E-4,4.714559E-2,-2.9508438E-2,8.942527E-2,2.9282112E-2,-1.0928001E-2,-6.337363E-2,1.2850916E-1,6.3563466E-2,6.3176416E-2,1.1986354E-2,2.2967739E-2,-1.7697055E-2,-5.04418E-2,-7.655636E-2,1.5865824E-1,1.1118227E-1,1.2537591E-1,5.2529804E-2,7.591796E-2,3.8276974E-2,2.157958E-2,-2.5679836E-2,9.368553E-2,1.6397767E-2,-7.1734474E-3,-3.0129498E-2,9.844547E-2,-5.0793614E-2,-6.888181E-2,-8.2178175E-2,1.23379566E-1,1.8627486E-1,1.4341949E-1,9.2673436E-2,1.8962511E-1,1.0611263E-1,5.77977E-2,1.15394415E-2,9.054986E-2,6.1272986E-2,7.6368846E-2,2.7298575E-2,3.395759E-2,1.410659E-2,-1.3295445E-2,-4.9078334E-2,1.4063676E-1,5.6544606E-2,3.0015424E-2,-5.1675183E-3,-1.6875553E-3,-1.986003E-2,-2.3568766E-2,-3.9010994E-2,1.7096716E-1,-5.705388E-2,-4.540781E-2,-5.6363486E-2,7.1849516E-3,-6.933566E-2,-2.11177E-2,-8.239816E-2,1.8792506E-1,1.08609565E-1,2.379391E-1,1.7141438E-1,1.5574743E-1,1.2349124E-1,1.02283165E-1,3.1766202E-2,1.5634587E-1,2.6140943E-1,1.7157848E-1,9.095921E-2,7.156551E-2,4.310271E-2,2.7807659E-2,-5.383608E-3,1.01056345E-1,8.003471E-2,6.3841835E-2,1.1336644E-3,1.1486538E-1,6.368646E-2,3.5395812E-2,-1.4177858E-3,4.6601404E-2,2.4606312E-2,1.6850883E-2,-7.5539653E-3,2.3072255E-3,-1.6532617E-2,-4.006586E-2,-6.795815E-2,1.1824672E-1,2.2675404E-1,1.0376529E-1,2.6483802E-2,5.2360397E-2,2.249266E-2,2.2383288E-3,-3.361405E-2,4.6058022E-3,-9.231832E-3,-1.52111035E-2,-2.496404E-2,-2.0203844E-2,-3.096494E-2,-3.447051E-2,-4.9480833E-2,2.726663E-1,8.18623E-2,-6.5144606E-2,1.8046487E-2,-4.0665675E-2,-5.306814E-2,-2.4476342E-2,-5.749525E-2,-2.3231827E-2,9.77773E-2,-7.1673155E-2,-6.052475E-2,-2.991182E-2,1.07161984E-1,-7.796052E-2,-8.479979E-2,1.2877851E-3,4.6142126E-3,4.595077E-3,2.4053373E-3,4.649241E-3,6.9064703E-3,4.621598E-3,3.2820525E-3,3.5162226E-3,5.130062E-3,3.433449E-3,2.5448452E-3,3.013377E-3,2.2798632E-3,2.6404104E-4,1.114787E-3,4.2828005E-3,3.0246766E-3,7.4755694E-3,5.1089893E-3,5.277934E-3,3.667878E-3,2.859135E-3,1.8480495E-3,2.591234E-3,1.5848691E-3,1.5074745E-3,7.795938E-4,1.0073594E-3,-2.95182E-4,2.178539E-4,-5.870287E-4,1.8851429E-3,2.513838E-3,2.1305012E-3,1.7006617E-3,1.6291869E-3,8.0528366E-4,-7.729536E-5,1.3064486E-3,2.3847343E-3,3.4322895E-3,1.4162235E-3,2.3744216E-3,9.413627E-4,3.9239493E-4,9.7585624E-5,-9.319819E-4,1.2479101E-3,1.5789374E-4,6.953343E-4,1.6850872E-4,5.877285E-4,1.9379784E-4,-3.968356E-5,-3.4655468E-4,-5.158037E-4,2.1136469E-4,-2.3198819E-4,-5.608435E-4,-4.935854E-4,-1.0472238E-3,-9.5225155E-4,-1.7137286E-3,3.3486423E-3,1.6387097E-3,7.594877E-3,4.4146436E-3,4.6487628E-3,1.5147462E-3,9.78135E-4,-1.0742218E-3,1.4081551E-3,3.5835244E-5,6.031766E-4,-4.895559E-4,6.6108385E-4,-6.399111E-5,-6.3136173E-4,-1.4320792E-3,2.6115932E-4,-5.7044566E-5,-1.4952125E-4,-4.8440538E-4,-3.3511492E-4,-9.695352E-4,3.2290152E-6,-6.088632E-4,-3.585633E-4,-6.0645223E-4,-6.875091E-4,-1.0980477E-3,-7.1143213E-4,-9.206101E-4,-1.1122667E-3,-1.4102665E-3,6.8853907E-3,5.582598E-5,3.77104E-3,5.1165296E-4,-1.9963547E-3,-0E0,-1.2248615E-3,3.9969156E-3,-3.713067E-4,-1.0100617E-3,-9.365178E-4,-1.2945876E-3,-7.36984E-5,-8.187291E-4,-1.0965508E-3,-1.3980209E-3,-7.693512E-4,1.8936376E-3,-5.0670607E-4,3.0782642E-3,-1.6139449E-3,-1.7791297E-3,-1.4837938E-3,-1.1618081E-3,1.8964809E-5,-1.4859021E-3,5.0986726E-3,-9.838551E-4,-1.8793558E-3,-8.2801434E-4,-1.775258E-3,-2.0253144E-3],"categories":[],"categories_nodes":[],"categories_segments":[],"categories_sizes":[],"default_left":[0,0,0,0,0,0,0,0,0,0,0,0,0,0,0,0,0,0,0,0,0,0,0,0,0,0,0,0,0,0,0,0,0,0,0,0,0,0,0,0,0,0,0,0,0,0,0,0,0,0,0,0,0,0,0,0,0,0,0,0,0,0,0,0,0,0,0,0,0,0,0,0,0,0,0,0,0,0,0,0,0,0,0,0,0,0,0,0,0,0,0,0,0,0,0,0,0,0,0,0,0,0,0,0,0,0,0,0,0,0,0,0,0,0,0,0,0,0,0,0,0,0,0,0,0,0,0,0,0,0,0,0,0,0,0,0,0,0,0,0,0,0,0,0,0,0,0,0,0,0,0,0,0,0,0,0,0,0,0,0,0,0,0,0,0,0,0,0,0,0,0,0,0,0,0,0,0,0,0,0,0,0,0,0,0,0,0,0,0,0,0,0,0,0,0,0,0,0,0,0,0,0,0,0,0,0,0,0,0,0,0,0,0,0,0,0,0,0,0,0,0,0,0,0,0,0,0,0,0,0,0,0,0,0,0,0,0,0,0,0,0,0,0,0,0,0,0,0,0,0,0,0,0,0,0],"id":6,"left_children":[1,3,5,7,9,11,13,15,17,19,21,23,25,27,29,31,33,35,37,39,41,43,45,47,49,51,53,55,57,59,61,63,65,67,69,71,73,75,77,79,81,83,85,87,89,91,93,95,97,99,101,103,105,107,109,111,113,115,117,119,121,123,125,127,129,131,133,135,137,139,141,143,145,147,149,151,153,155,157,159,161,163,165,167,169,171,173,175,177,179,181,183,185,187,189,191,193,195,197,199,201,203,205,207,209,211,213,215,217,219,221,223,225,227,229,231,233,235,237,239,241,243,245,247,249,251,253,-1,-1,-1,-1,-1,-1,-1,-1,-1,-1,-1,-1,-1,-1,-1,-1,-1,-1,-1,-1,-1,-1,-1,-1,-1,-1,-1,-1,-1,-1,-1,-1,-1,-1,-1,-1,-1,-1,-1,-1,-1,-1,-1,-1,-1,-1,-1,-1,-1,-1,-1,-1,-1,-1,-1,-1,-1,-1,-1,-1,-1,-1,-1,-1,-1,-1,-1,-1,-1,-1,-1,-1,-1,-1,-1,-1,-1,-1,-1,-1,-1,-1,-1,-1,-1,-1,-1,-1,-1,-1,-1,-1,-1,-1,-1,-1,-1,-1,-1,-1,-1,-1,-1,-1,-1,-1,-1,-1,-1,-1,-1,-1,-1,-1,-1,-1,-1,-1,-1,-1,-1,-1,-1,-1,-1,-1,-1,-1],"loss_changes":[1.3274624E3,2.7654425E2,3.7110907E2,1.09887024E2,1.5090096E2,8.7383705E1,3.559668E1,2.2540527E1,4.4605408E1,2.757306E1,6.1593536E1,2.9438358E1,4.1529922E1,5.536072E0,4.4313354E0,1.5287415E1,1.6351318E1,1.2175201E1,1.1986008E1,1.2295044E1,1.2298767E1,1.2560623E1,1.0017942E1,9.349773E0,1.7039017E1,1.1963976E1,8.470459E0,2.8496354E0,3.1390686E0,1.5189514E0,7.8601074E-1,6.5297546E0,6.6306763E0,2.3765564E0,1.0212265E1,5.2826004E0,7.4981155E0,9.937271E0,1.7459948E0,3.1351013E0,4.4368973E0,3.1746178E0,5.320957E0,6.035507E0,5.037575E0,1.1446738E0,2.017662E0,4.464863E0,4.2568083E0,5.9664803E0,4.7336154E0,5.7000074E0,1.2262077E0,2.0762825E0,2.9249039E0,1.4460673E0,5.7600528E-2,1.9285355E0,1.8537903E0,7.3377776E-1,8.6953735E-1,2.5010854E-1,5.97229E-1,1.0115242E0,3.4653625E0,4.1629868E0,5.170273E0,2.767212E0,1.2528954E0,2.294983E0,7.3945546E-1,9.8589706E-1,1.5099907E0,1.1037407E0,2.3556595E0,4.609787E0,4.971039E0,1.8994517E0,8.742195E-1,1.4264069E0,1.1367416E0,3.8679657E0,2.850972E-1,6.292095E-1,7.029438E-1,1.4106331E0,1.0540446E0,5.117119E0,2.3898106E0,5.1474514E0,3.920895E-1,6.1366767E-1,8.9276266E-1,6.159086E-1,4.2578506E-1,2.0619354E0,1.6181221E0,4.236923E0,1.9472058E0,3.1267757E0,3.3094254E0,2.249219E0,8.580098E-1,2.9267302E0,1.7872462E0,7.658415E-1,4.0720844E-1,1.5591717E0,8.012543E-1,8.238373E-1,4.7514725E-1,3.2717705E-1,4.1628164E-1,9.0975404E-2,1.3258027E-1,1.5080299E0,3.7456894E-1,3.7539363E-1,7.3124695E-1,1.8826501E-1,2.7272743E-1,3.81958E-1,1.820488E-1,2.1572168E-1,2.6844162E-1,9.8015594E-1,1.2384033E-1,0E0,0E0,0E0,0E0,0E0,0E0,0E0,0E0,0E0,0E0,0E0,0E0,0E0,0E0,0E0,0E0,0E0,0E0,0E0,0E0,0E0,0E0,0E0,0E0,0E0,0E0,0E0,0E0,0E0,0E0,0E0,0E0,0E0,0E0,0E0,0E0,0E0,0E0,0E0,0E0,0E0,0E0,0E0,0E0,0E0,0E0,0E0,0E0,0E0,0E0,0E0,0E0,0E0,0E0,0E0,0E0,0E0,0E0,0E0,0E0,0E0,0E0,0E0,0E0,0E0,0E0,0E0,0E0,0E0,0E0,0E0,0E0,0E0,0E0,0E0,0E0,0E0,0E0,0E0,0E0,0E0,0E0,0E0,0E0,0E0,0E0,0E0,0E0,0E0,0E0,0E0,0E0,0E0,0E0,0E0,0E0,0E0,0E0,0E0,0E0,0E0,0E0,0E0,0E0,0E0,0E0,0E0,0E0,0E0,0E0,0E0,0E0,0E0,0E0,0E0,0E0,0E0,0E0,0E0,0E0,0E0,0E0,0E0,0E0,0E0,0E0,0E0,0E0],"parents":[2147483647,0,0,1,1,2,2,3,3,4,4,5,5,6,6,7,7,8,8,9,9,10,10,11,11,12,12,13,13,14,14,15,15,16,16,17,17,18,18,19,19,20,20,21,21,22,22,23,23,24,24,25,25,26,26,27,27,28,28,29,29,30,30,31,31,32,32,33,33,34,34,35,35,36,36,37,37,38,38,39,39,40,40,41,41,42,42,43,43,44,44,45,45,46,46,47,47,48,48,49,49,50,50,51,51,52,52,53,53,54,54,55,55,56,56,57,57,58,58,59,59,60,60,61,61,62,62,63,63,64,64,65,65,66,66,67,67,68,68,69,69,70,70,71,71,72,72,73,73,74,74,75,75,76,76,77,77,78,78,79,79,80,80,81,81,82,82,83,83,84,84,85,85,86,86,87,87,88,88,89,89,90,90,91,91,92,92,93,93,94,94,95,95,96,96,97,97,98,98,99,99,100,100,101,101,102,102,103,103,104,104,105,105,106,106,107,107,108,108,109,109,110,110,111,111,112,112,113,113,114,114,115,115,116,116,117,117,118,118,119,119,120,120,121,121,122,122,123,123,124,124,125,125,126,126],"right_children":[2,4,6,8,10,12,14,16,18,20,22,24,26,28,30,32,34,36,38,40,42,44,46,48,50,52,54,56,58,60,62,64,66,68,70,72,74,76,78,80,82,84,86,88,90,92,94,96,98,100,102,104,106,108,110,112,114,116,118,120,122,124,126,128,130,132,134,136,138,140,142,144,146,148,150,152,154,156,158,160,162,164,166,168,170,172,174,176,178,180,182,184,186,188,190,192,194,196,198,200,202,204,206,208,210,212,214,216,218,220,222,224,226,228,230,232,234,236,238,240,242,244,246,248,250,252,254,-1,-1,-1,-1,-1,-1,-1,-1,-1,-1,-1,-1,-1,-1,-1,-1,-1,-1,-1,-1,-1,-1,-1,-1,-1,-1,-1,-1,-1,-1,-1,-1,-1,-1,-1,-1,-1,-1,-1,-1,-1,-1,-1,-1,-1,-1,-1,-1,-1,-1,-1,-1,-1,-1,-1,-1,-1,-1,-1,-1,-1,-1,-1,-1,-1,-1,-1,-1,-1,-1,-1,-1,-1,-1,-1,-1,-1,-1,-1,-1,-1,-1,-1,-1,-1,-1,-1,-1,-1,-1,-1,-1,-1,-1,-1,-1,-1,-1,-1,-1,-1,-1,-1,-1,-1,-1,-1,-1,-1,-1,-1,-1,-1,-1,-1,-1,-1,-1,-1,-1,-1,-1,-1,-1,-1,-1,-1,-1],"split_conditions":[-3.6408916E-1,-6.7977625E-1,5.0044143E-1,-1.0148673E0,-1.0577532E0,-1.0603997E0,1.1570212E0,-1.2901473E0,-1.650049E0,4.904572E-1,1.7911007E-1,-2.0015776E0,2.884817E-1,-1.9165432E0,1.6566023E0,-1.491772E0,-1.4629064E0,-2.1130996E0,1.5053644E0,-1.3624308E0,-1.629722E0,-7.7099776E-1,7.985478E-1,1.6303982E-1,4.3485102E-1,-2.10114E-2,8.031641E-2,1.6116883E0,7.7975804E-1,-1.5120807E0,-1.5435543E0,-1.8372077E0,-1.78927E0,-8.795729E-1,1.7370678E0,-1.0487375E0,4.225592E-1,-6.439171E-1,-1.1934779E0,-1.391224E-1,3.7015393E-1,-2.0167854E0,1.4877014E-1,-2.7005596E-2,9.880572E-1,-8.278064E-2,1.4712973E0,-5.4994375E-1,4.7514772E-1,-1.5763099E0,9.730356E-1,-1.1093527E-1,2.1083476E-1,8.449588E-1,-1.7736173E-1,-2.1130996E0,1.0236186E0,8.620224E-1,-1.0603997E0,5.824155E-1,-6.938819E-1,2.9099088E0,2.0288324E0,-2.2910419E0,-2.2910419E0,-1.1485436E0,-1.2204812E0,-7.907843E-1,1.2105772E0,-1.1248302E0,-1.6429955E0,-2.2910419E0,-2.2910419E0,-1.9165432E0,-8.044329E-1,-1.4286501E0,-1.1757143E0,1.9127027E0,-7.2767854E-1,-1.4226959E0,-1.629722E0,1.2512593E0,1.5371307E0,1.2775664E0,2.016354E0,1.4484799E0,1.2496734E0,1.2105772E0,9.1457874E-1,1.276639E-1,-5.8321196E-1,-1.4209645E0,4.2022473E-1,